#ifndef WEIGHTS_H
#define WEIGHTS_H

static const float layer1_w[] = {-0.17571893, 0.1381264, -0.12317328, -0.22776525, -0.19283204, -0.10022711, -0.2759762, -0.12325982, -0.052209895, 0.17148277, 0.015715305, -0.07210806, 0.07172349, 0.07057839, 0.08943126, -0.25225943, 0.01655524, 0.017529443, -0.06168669, 0.19854069, 0.187819, -0.1778528, 0.11793221, 0.055322133, -0.071577884, -0.1554967, 0.08878101, -0.14313479, 0.1128714, 0.045633346, -0.08594395, 0.21842083, -0.13419044, -0.15412009, 0.20897081, -0.068394125, -0.17975384, -0.12792863, 0.19619615, -0.26179448, 0.23241019, 0.11754074, -0.17170261, 0.14190784, -0.011347508, -0.24433672, 0.011996227, 0.21342209, -0.36356816, 0.23221505, 0.11872204, 0.047294967, 0.17864212, -0.12741517, 0.15300503, -0.24608108, -0.28321645, -0.16795881, -0.06633306, -0.11342013, 0.06455216, -0.2544032, -0.15211512, 0.11065218, 0.05374249, -0.11793203, 0.123687014, -0.0991125, -0.11248149, 0.22495392, 0.03389195, -0.104037404, 0.25335723, 0.15049002, 0.041311774, 0.064301044, 0.080022424, -0.20908149, 0.2820013, 0.27375743, 0.099271104, -0.088951424, 0.0013657445, -0.13889073, -0.34214732, -0.335557, -0.17071812, 0.3885591, 0.22035986, 0.3939942, 0.046982024, -0.17715438, 0.13705133, -0.2442581, -0.22975662, -0.014378083, 0.12557854, 0.2418847, 0.12643896, 0.10730515, 0.16201007, -0.02409085, -0.2250311, -0.14862931, -0.12776531, 0.13270232, 0.17841841, -0.066963725, -0.095669, -0.18411885, 0.2788697, -0.10340774, -0.19405305, 0.27884358, -0.08952207, -0.17326848, 0.1864501, -0.27481195, -0.069174305, 0.3190362, -0.17747529, -0.10815289, 0.2576304, -0.022330608, 0.01967771, 0.13109927, -0.16771533, 0.003339239, 0.18557023, -0.19667552, -0.111152194, 0.31492263, -0.21072571, 0.090391345, 0.10106177, 0.10612012, -0.3219113, 0.17955285, -0.27601308, 0.10166409, 0.23442656, 0.15277278, 0.18684812, -0.33550847, 0.02390381, -0.023798047, 0.06732428, -0.3223437, 0.045157928, 0.2573866, 0.34738055, 0.0365421, -0.3908595, -0.22217478, -0.060931843, -0.037602603, -0.14403236, 0.04717462, 0.26845065, 0.18455231, 0.25026456, -0.17446433, -0.12288662, 0.18787578, 0.17975685, 0.13858458, 0.15191369, 0.19680089, 0.1473865, 0.031680416, 0.102047876, -0.022827413, -0.012959163, 0.06091136, -0.1858108, 0.019299805, -0.009988476, -0.10308833, -0.1130804, -0.16541009, 0.19476451, 0.043848153, -0.107340254, 0.12014595, 0.06548655, -0.14253531, -0.13558576, 0.17782916, 0.031617247, -0.14186499, -0.21996117, 0.070245534, 0.12678081, -0.1830786, -0.19485438, -0.20910978, 0.0509312, -0.26610804, -0.22827762, -0.061036974, -0.0775696, 0.20302756, 0.20297535, -0.15388007, -0.13958411, 0.050158467, 0.12244889, -0.044197317, -0.10454899, 0.19090784, 0.2273648, 0.30451158, 0.035291273, 0.052664705, 0.05200622, 0.24093965, -0.23823082, -0.3240539, -0.07381163, 0.029327495, 0.093629666, 0.021080233, -0.1341887, 0.15121354, -0.08871564, 0.25175136, 0.21299961, 0.27187774, 0.12411265, 0.027918244, 0.111551434, 0.0660857, 0.20641237, -0.06757978, -0.049575318, -0.23910841, 0.06412367, 0.115798585, 0.038875, -0.104798645, -0.28481403, -0.12379452, -0.1417959, -0.059246216, -0.23595521, -0.013797551, 0.3040858, -0.18358359, -0.1082917, -0.0336346, 0.34479037, -0.24400839, 0.07261362, 0.03548484, 0.116385326, 0.30859604, -0.26713303, -0.3234163, 0.21865828, 0.28653985, -0.0016827729, -0.16343932, -0.12564507, 0.026683321, -0.031000307, -0.09380469, -0.064376704, 0.0505886, 0.31659898, -0.25084218, -0.09139898, -0.23304263, 0.12421534, -0.14908417, -0.10074134, 0.16565499, -0.04836083, 0.15455042, 0.19393103, -0.2602615, 0.003739668, 0.112034544, -0.22403589, 0.17935109, 0.14348792, -0.06822722, -0.19645385, -0.21833856, 0.043372218, 0.037402574, 0.23935713, 0.14174116, 0.08352504, 0.08899943, 0.034713063, 0.11537655, 0.1393989, 0.13367788, 0.49468318, 0.30033678, -0.0888809, -0.18344708, -0.30255535, -0.18146154, -0.20797943, 0.020370303, 0.3053716, 0.33751854, -0.10730956, -0.1683499, 0.021277627, -0.2803264, -0.046633314, -0.22408988, -0.005910808, 0.033432752, 0.22675218, 0.19480188, -0.06918803, -0.2834763, -0.034386724, 0.11828104, -0.067490816, -0.008709292, 0.33799392, 0.21579918, -0.028881596, 0.07624404, -0.04448726, -0.15480602, -0.15886995, -0.042680968, 0.2218523, 0.19716579, -0.249521, -0.016049456, -0.02278426, -0.2407836, -0.23553266, -0.091580644, 0.006700826, -0.13704138, -0.005290208, -0.15512653, -0.10216992, -0.12552148, -0.100019194, 0.16966029, -0.016814552, -0.122742094, 0.22039436, 0.2015943, 0.080042295, 0.25883508, -0.14408031, -0.24865499, 0.12088973, -0.15152305, -0.29971737, 0.020074874, 0.13959987, 0.22875313, 0.098020084, -0.29868582, -0.22444226, 0.28599006, 0.14340307, -0.15704924, -0.12768964, -0.17101078, 0.19080833, 0.051763296, -0.21921949, 0.14085738, 0.25221896, 0.013285979, -0.1149885, -0.07713911, -0.008031102, 0.27904192, -0.17125627, -0.030431323, 0.2224971, 0.19270416, 0.2533033, 0.22602181, 0.2076971, -0.11277655, -0.1577178, 0.13101758, 0.0015386464, -0.25052252, -0.040322173, -0.20831268, -0.27330035, -0.09261114, -0.03561951, -0.08438323, 0.25600666, -0.16425487, 0.016812084, -0.11060519, -0.20616747, -0.15215941, -0.061334852, -0.22773375, 0.27176678, -0.22170633, -0.17215829, 0.36447358, -0.21436934, -0.04446673, 0.3243433, 0.022272024, -0.11434286, 0.24809794, -0.040686708, -0.18598989, 0.25056875, -0.1530544, 0.03273345, 0.08743287, -0.2714699, 0.015285915, 0.25506577, 0.0010430119, -0.22332121, 0.2358519, -0.2678821, 0.0030586973, 0.07731913, -0.044239555};
static const float layer1_b[] = {-0.22414224, -0.028005697, -0.0106068775, -0.03445426, -0.044961143, 0.08405658, 0.09063021, 0.18610041, -0.039587107, -0.020489298, -0.096451655, -0.101962455, -0.21860327, -0.0926487, -0.07805367, -0.018982265};

static const float layer2_w[] = {0.08112656, -0.0034242012, -0.11176204, 0.20137732, 0.11381185, -0.010410845, -0.021767806, 0.018855866, 0.07114628, 0.019112099, -0.13666114, -0.0836981, -0.00050137105, -0.076036446, -0.048721462, -0.056549527, 0.019798355, 0.013185937, -0.013127595, -0.24539714, -0.12514554, 0.029531712, -0.3497403, -0.30361626, -0.040736977, -0.31537876, -0.24150498, -0.06543389, 0.083330244, 0.1611469, 0.18394005, 0.0012544801, 0.14945509, 0.088179626, 0.17173764, -0.0042959647, -0.09298811, -0.28830296, -0.25322354, 0.12399256, -0.045332633, -0.21264917, -0.11587663, -0.014154967, -0.02299684, 0.013687462, 0.010765582, 0.022406979, 0.054298252, -0.054828938, 0.04624994, 0.012492939, 0.16506265, 0.026374167, -0.05087342, -0.018735666, 0.015876202, 0.030338116, -0.04788489, 0.04466679, 0.056979556, -0.01459837, -0.011818374, 0.0112285195, 0.060862955, 0.013732431, -0.024390683, -0.06057759, -0.0069180476, 0.1947873, 0.043545876, -0.10134423, -0.011131195, 0.099998035, 0.06826337, -0.029054673, -0.06555077, 0.042510446, -0.03699576, -0.1321506, 0.018312208, -0.044714425, -0.028792724, -0.12948789, 0.1976566, -0.16144575, -0.14885417, 0.09206981, 0.14446212, -0.07626357, -0.08405305, -0.08473539, 0.056444064, -0.08604605, -0.07781443, -0.0267255, 0.10305447, -0.006006352, -0.21585377, 0.047965903, -0.010972574, 0.035454888, 0.22205202, 0.19740672, -0.11309959, -0.18, 0.12724833, 0.060870394, 0.13083734, -0.05100016, -0.07237697, 0.26752034, 0.17414163, -0.091008894, 0.09170191, 0.042122424, -0.11829052, 0.040841702, -0.13178787, -0.031298704, 0.18683718, 0.23476854, 0.06883437, -0.23139946, 0.034613885, 0.13923195, 0.07934797, -0.108751535, -0.06849814, 0.2050226, 0.055336412, -0.038237303, 0.0802412, 0.14184333, -0.031232866, -0.032385096, -0.17607784, -0.016093642, 0.0026105635, -0.16805853, -0.30469048, -0.036038812, -0.11140646, -0.20128885, 0.09143407, 0.012788539, 0.09832897, -0.13900691, -0.032939076, 5.877664e-05, -0.04293489, -0.061252706, -0.16243586, -0.05811265, 0.069998115, -0.0389593, -0.16377778, -0.102643795, 0.013697016, 0.10176027, -0.18335262, -0.13493152, -0.064355426, -0.079668775, -0.19845347, -0.11437432, -0.024872972, -0.2178142, -0.04508373, -0.07575362, 0.04847642, 0.03865008, -0.030074932, -0.14856474, 0.12758675, 0.19870785, 0.09791614, 0.11181208, 0.18418756, 0.22646794, 0.118219376, 0.10297134, 0.1314828, -0.2365846, -0.11237717, 0.16256227, -0.11082189, -0.2372291, -0.27683997, 0.027399711, 0.12465802, -0.036700472, 0.005664695, -0.013504657, 0.02965831, -0.02705323, 0.008112643, 0.117466025, -0.10806924, -0.006712172, 0.06736857, -0.07000607, -0.07283111, 0.014986014, 0.08145406, 0.12970275, -0.0489185, -0.053420845, 0.055280082, -0.020405868, 0.106210515, 0.16410686, 0.1227425, 0.067575656, 0.12610468, 0.15692182, -0.16191235, -0.05648129, -0.03913978, -0.26400045, -0.16503291, -0.17722319, -0.11178861, -0.1130656, -0.035386965, 0.23995285, 0.014826409, 0.005341654, 0.13483444, 0.13423121, 0.089680955, -0.104980014, 0.14077908, 0.17897159, -0.14839213, -0.046554543, -0.018396897, -0.07436864, 0.022710314, 0.01499526, -0.12350927, -0.0048547518, -0.17789203, -0.1308947, 0.11331789, 0.02902744, -0.112289466, -0.11649671, 0.093301386, -0.0058679907, -0.110160775, -0.14011778, -0.02251586, 0.10569207, 0.0505034, -0.13324013, -0.05371239, -0.10906501, -0.03703956, -0.15744114, -0.21280092, 0.075723924, 0.1706783, 0.2164095, -0.0008213297, 0.07242873, 0.29544634, 0.06349054, 0.18993774, -0.11286614, -0.065629296, -0.054486096, 0.06007336, -0.08032528, -0.1358441, 0.10433079, 0.14420794, 0.0015084203, -0.022178072, -0.0369478, -0.073309116, -0.051532704, -0.12389109, -0.026117727, -0.18175896, -0.008070011, -0.08281472, -0.14116374, -0.17535998, -0.11861005, -0.042142943, 0.031213876, -0.062241588, -0.12662135, -0.15495375, -0.03685945, -0.07344059, -0.020098362, 0.04917704, 0.08074696, -0.10424379, 0.06675265, 0.05016877, -0.111785, -0.09475758, 0.016288148, -0.097374305, 0.06938435, 0.031270243, 0.0062424717, -0.03224403, -0.024432259, -0.10905711, -0.102665216, -0.13114627, 0.05060646, 0.04774755, 0.1492161, 0.108728185, 0.037239615, 0.13434225, 0.070707455, 0.109512694, 0.102654114, -0.061482243, -0.10371856, 0.002836926, -0.1863026, -0.115730286, -0.1262039, -0.27061674, -0.3150069, -0.09133028, 0.063634194, 0.16529852, 0.15643357, -0.011630239, 0.09860821, 0.07772808, -0.051713903, -0.1587028, 0.09498892, 0.0004949456, 0.11227277, 0.09884781, -0.15265806, 0.112220824, 0.076955415, -0.15670982, -0.04402272, -0.07518846, 0.052220497, 0.18957101, 0.11387385, -0.029546801, -0.06676279, 0.0044241617, -0.05986327, -0.08297214, 0.012846698, 0.1438858, 0.13416071, 0.13389944, 0.07413289, 0.10243465, -0.033187773, 0.10759188, -0.0149506675, -0.06755236, -0.064354494, -0.19200648, 0.095521666, -0.21818486, -0.10560364, -0.07753398, -0.07802856, -0.047055915, -0.24883443, -0.11486331, 0.047261152, 0.026205918, -0.09682336, -0.08222931, 0.06838902, -0.08445079, -0.12881753, -0.11700317, 0.0793097, 0.12295284, 0.101113856, -0.0016060723, 0.07626764, 0.16873747, 0.12335447, 0.24975376, 0.22832505, -0.1211427, -0.16969217, -0.23222977, 0.0037281457, -0.04550319, -0.1374428, -0.09898624, 0.032838523, -0.048780918, 0.18589592, 0.048735615, 0.06907433, 0.044585805, 0.124428, 0.13203888, -0.0098981215, 0.111071624, 0.13415724, 0.01672379, -0.018701816, 0.020684907, 0.081154324, 0.07815466, 0.09628156, 0.010833455, 0.011015156, -0.13572928, 0.14837775, 0.13599427, 0.29498583, 0.046845675, 0.2088777, 0.23573755, -0.028150998, 0.017294506, -0.081523545, 0.1016732, 0.087652825, -0.053419963, -0.10438503, 0.19154975, 0.0384203, -0.14328657, -0.04464992, 0.16074209, -0.090585515, -0.022440191, -0.14795837, -0.076788254, 0.090580575, 0.14952569, -0.08158379, -0.12592973, 0.102335066, 0.00041424687, 0.031301323, 0.1928108, 0.100817, 0.09645517, 0.0867836, -0.07199381, 0.037935667, -0.15727735, -0.17332813, -0.23784328, -0.09256456, -0.066673584, -0.31988472, -0.24287422, -0.08759354, 0.019386616, -0.059703402, 0.029660402, -0.025362682, -0.13891204, 0.16416205, 0.22238918, 0.1180353, 0.037990145, -0.060509253, 0.19498017, -0.07146602, -0.24385355, -0.3319862, -0.019545097, -0.06783916, -0.36545768, -0.113981515, -0.12294212, -0.08371855, 0.005855366, -0.01045646, 0.028442653, 0.05516981, -0.08968748, -0.010798612, 0.08077938, -0.25404552, -0.010368601, -0.04816698, -0.005514618, 0.00016959778, 0.031767573, -0.014345847, -0.08883656, -0.111076646, 0.14009017, -0.09501893, -0.17051445, -0.10899526, 0.12862435, -0.17153876, -0.21264371, -0.0004406598, -0.19452707, -0.0926412, -0.11188512, 0.19543274, 0.013143432, 0.13869996, 0.26183745, 0.077281676, -0.13247187, 0.17076023, 0.18071206, -0.23247752, -0.030368641, 0.06711982, -0.0722486, 0.0202076, -0.10520223, -0.06831, -0.035370406, -0.0629055, -0.01766317, 0.05343317, 0.07427788, -0.16490772, -0.3514532, 0.036040973, 0.0046140314, -0.13673806, -0.13240758, 0.11381417, 0.13168383, 0.15769917, -0.025317939, 0.1383112, 0.075166926, -0.050236117, 0.016387109, 0.072594054, 0.09054286, 0.2501119, 0.22899193, 0.0091098165, -0.09329242, 0.48537433, 0.11955674, 0.047897533, 0.06642566, 0.3628956, 0.109650865, 0.1611861, -0.0058204792, -0.08991998, 0.16081657, 0.11997178, -0.12789732, 0.026125718, 0.16151507, -0.1258508, 0.08209465, 0.07475749, 0.062490642, -0.06590136, -0.002359382, 0.032760747, 0.015571807, -0.062613934, -0.09893896, -0.034205697, -0.03869474, 0.043388367, 0.01915579, 0.06613221, 0.05985894, 0.05502618, -0.020920342, -0.048200782, 0.012663048, 0.22386664, 0.09405074, -0.081753805, 0.25981843, -0.069411695, 0.10505332, 0.22664967, 0.058202825, -0.14517987, -0.040582802, -0.05920117, -0.08657891, -0.107702, -0.042327743, -0.08011384, -0.018622559, -0.09208865, -0.2208165, -0.026243167, -0.0333972, -0.03428332, 0.09355356, -0.019841176, -0.016705677, -0.013349878, 0.108805895, 0.008456231, 0.075851224, 0.11905445, -0.04906433, 0.0060267574, 0.008387111, 0.11213938, 0.14875548, -0.045096386, 0.043959465, 0.10791422, 0.15835471, 0.049102124, -0.007676646, 0.06052506, 0.061424114, 0.16281375, 0.11014678, -0.018745625, 0.047817923, -0.022548694, -0.08699224, -0.039852083, -0.030665927, -0.10302008, 0.039573826, -0.016278245, 0.0036486334, 0.0069853375, -0.005742034, 0.077936396, 0.111792415, 0.06637002, 0.046783615, 0.040503304, 0.037280794, 0.0046895063, -0.0047630942, 0.054038674, -0.0039588567, -0.11243497, -0.027019018, 0.036123626, 0.06670413, -0.043312814, -0.033943884, -0.16385663, -0.06902684, 0.04101915, -0.12141748, 0.02230685, -0.09298657, -0.09345104, 0.046430994, -0.060363162, -0.047868084, -0.06971703, -0.08000286, -0.10006494, -0.031407148, -0.13190702, 0.0885794, -0.05134713, -0.14687803, -0.06414465, -0.05507847, -0.020132747, -0.00680741, -0.037647095, -0.28605023, -0.29873565, 0.03787785, -0.08935289, 0.01015262, -0.049369805, 0.06732766, -0.014099219, 0.02006429, 0.043525994, -0.06226119, -0.19886515, -0.14714585, -0.13299946, 0.012592665, -0.10094588, -0.15711956, -0.10212812, -0.096855804, -0.06342915, -0.0626923, -0.08587343, -0.005723824, 0.055517096, -0.010260955, -0.023893898, -0.10778283, -0.09246557, 0.0037393721, 0.039117444, 0.45539907, 0.39381072, 0.21905188, 0.24482873, 0.40266398, 0.19918875, 0.29165623, 0.22839823, -0.20729463, -0.14354327, 0.018417992, -0.28462386, 0.0102094235, 0.12471987, -0.0814046, -0.16734602, 0.081398666, -0.06910731, 0.11290037, -0.15966073, -0.0035696223, -0.023658672, 0.027809678, 0.050355736, 0.034522265, -0.05272238, -0.18869263, -0.15085255, 0.14305449, -0.14637868, -0.1813123, -0.06519906, -0.12802388, -0.19942926, -0.113808505, 0.01826451, -0.11507307, -0.04114437, -0.09574981, 0.0818941, -0.31839392, -0.34019238, -0.10252555, 0.053182695, -0.2173349, 0.0027029263, -0.19196033, -0.09645005, 0.14268969, 0.07547776, 0.06704469, -0.09587644, 0.026353844, 0.16899793, 0.034838866, -0.09270833, -0.016505146, 0.14080793, -0.07342987, 0.031199679, 0.07236721, -0.024857415, -0.053643443, -0.1600797, -0.19891158, -0.0021064875, -0.051815327, -0.17190626, 0.04919218, -0.040663656, -0.21193235, 0.04520277, 0.09270834, 0.14803168, 0.16345751, 0.05516704, 0.22288066, -0.106597826, 0.17661063, 0.12722321, 0.07281025, -0.068352595, -0.051052287, 0.034155384, 0.13550404, 0.11221308, -0.1123473, -0.06958551, 0.03891036, 0.32690248, 0.16606154, 0.13735479, 0.20233187, 0.24947956, 0.1116672, -0.0150143625, 0.1971983, 0.14192487, -0.31289244, -0.30398366, -0.29910612, -0.045290645, -0.25485533, -0.17037185, -0.0866777, -0.050848186, -0.03922442, -0.15648176, -0.10626466, -0.14569046, -0.089522704, -0.051112797, -0.032205407, -0.051998418, -0.4865024, -0.08202994, -0.05897489, 0.066124886, 0.06076872, -0.14225599, 0.0430432, 0.07368609, 0.031065235, -0.051831674, 0.03126513, 0.09809018, 0.08565257, -0.06801441, -0.0056674285, 0.0877681, 0.28498057, 0.2336305, -0.2339727, 0.13556598, -0.008795351, 0.07408132, -0.03971676, 0.05507915, 0.02710467, -0.03623933, -0.032218765, -0.04930348, -0.017931761, 0.21043733, 0.05898641, -0.07763853, 0.12900709, 0.08677048, 0.040783256, 0.0020592622, 0.15598944, 0.14162888, -0.05738356, 0.059454236, 0.03496843, 0.048555087, 0.0956085, 0.044341706, 0.022759901, 0.07054237, 0.061509646, 0.11425474, -0.14462338, -0.11906596, -0.11991067, 0.090050586, -0.016482716, 0.1484293, 0.23864068, 0.029091967, -0.034228068, -0.035853986, -0.0074562193, 0.029007407, -0.12341252, -0.12928382, -0.08851118, -0.12403419, 0.059915666, 0.16126697, 0.009604657, -0.027093848, -0.086603075, 0.11317415, 0.2108387, 0.14239168, -0.021897811, -0.09057808, -0.02256288, -0.10697656, -0.10971966, -0.26530892, -0.023575002, 0.040546402, 0.17809922, 0.089079194, 0.06598115, 0.29478663, 0.19736937, -0.040506836, 0.013999228, 0.15073444, 0.22896042, 0.099183455, 0.23770271, 0.03850721, 0.008382976, 0.052844975, -0.041900296, -0.016127834, 0.036929946, 0.024733782, 0.008151519, -0.06951157, 0.049978796, 0.08163723, 0.028453672, 0.03582793, -0.13101621, -0.064999364, 0.010275051, -0.008170577, 0.080857866, -0.012958061, 0.14241605, 0.16721536, -0.0054790867, 0.083831005, 0.014604417, -0.02362974, -0.027382975, -0.012043992, 0.05480676, 0.042556323, -0.016955987, -0.08404355, -0.11929433, -0.063352495, 0.02672191, 0.00680926, -0.05288958, -0.015666943, 0.21350524, 0.024980813, -0.039749157, 0.094984174, -0.036277983, 0.028496573, 0.106827766, -0.038300686, 0.08951273, -0.17530683, 0.23737015, 0.09685565, 0.2559031, 0.21754515, -0.14010493, 0.12285425, 0.050521195, -0.0029414597, -0.026473852, -0.0010100863, 0.047022298, 0.15826982, 0.14734459, -0.05763935, 0.18599148, -0.030281737, -0.060493026, -0.20670328, 0.061953884, 0.068312585, -0.10986824, -0.09467954, -0.12588952, -0.21039133, -0.18427606, -0.07676818, 0.079034016, -0.015291977, 0.06351441, 0.07079725, 0.03874945, -0.03670745, 0.02247729, 0.050621413, -0.02151197, 0.100977845, 0.034468807, 0.01276706, -0.029462049, -0.010580192, 0.019416295, -0.12482146, -0.0028318644, -0.071853906, 0.011194704, 0.13144907, 0.049953867, -0.0009729712, -0.084649876, -0.1538746, 0.06321694, -0.093449295, 0.04873238, 0.038318593, 0.23875773, 0.18029384, 0.0471031, 0.1828916, -0.10403753, -0.0010094368, -0.18015295, -0.39480478, 0.02972268, 0.1261441, 0.008600683, -0.0035020935, 0.011546404, 0.022702709, 0.018820688, -0.05737411, -0.06623386, -0.15453357, -0.025617631, -0.00483219, 0.20694494, 0.12064736, -0.01670461, 0.19923325, -0.06988178, -0.01631256, -0.011318871, 0.18888205, 0.1943109, 0.029305244, -0.037493728, -0.092966825, -0.19942771, -0.43194795, -0.45944107, 0.122574374, 0.32198465, 0.24068588, 0.11867534, 0.14493896, 0.048222475, -0.0931541, -0.1449181, -0.16207333, 0.120767586, 0.08297885, 0.08801766, 0.10436454, 0.111664064, 0.05575867, 0.0049935984, 0.077442214, 0.033583473, 0.013110574, 0.20097312, 0.092868544, 0.11277584, 0.14208937, -0.0452003, 0.03777979, -0.052371208, -0.1211486, -0.0770241, 0.016178235, 0.007863257, -0.052536223, 0.12364605, 0.063403085, 0.13859953, 0.0849548, -0.030079521, 0.006882239, -0.018461976, -0.043832723, -0.32787654, -0.29834387, -0.3097266, -0.29318333, -0.26112685, -0.33670813, -0.09988469, 0.09072686, 0.10632327, 0.11823228, 0.17736809, 0.15028761, 0.00390103, 0.03766975, -0.20772387, -0.008087344, 0.00014559753, 0.04144413, 0.12150116, -0.043750923, -0.00093725865, 0.063812464, 0.07486799, 0.1455619, 0.1275472, 0.19666019, 0.15618768, 0.18862271, 0.058649153, 0.05124504, 0.08537728, -0.0021910958, 0.10938117, 0.047310803, 0.047205534, -0.026338201, 0.019570187, 0.0075309793, -0.19296639, -0.120516196, -0.16124564, -0.30278856, 0.027490426, -0.0054165847, -0.066857636, 0.045527223, -0.07889835, 0.022027744, -0.029768914, 0.029338986, -0.09246717, -0.039245408, 0.12348489, 0.10841062, -0.11924713, -0.05532496, -0.10336666, -0.27513236, -0.12490398, -0.2786531, 0.019147426, 0.043265242, 0.058972485, -0.064550646, -0.14023267, -0.114679255, -0.17097147, -0.20154542, -0.24035358, 0.0104037, -0.06786965, -0.02400228, -0.09717154, 0.0016787034, 0.05195349, -0.05757899, 0.08112346, 0.14759414, -0.14680408, 0.062845916, 0.08199238, -0.20900415, -0.19297649, 0.1212317, -0.026649099, -0.04765738, 0.022508264, 0.25681219, 0.19735654, 0.056778565, 0.032362804, -0.0351593, -0.024576772, -0.1977568, -0.34830198, -0.37326714, -0.017907156, 0.041635193, -0.06996361, -0.0911154, -0.086790875, -0.1009859, -0.107711025, -0.049146507, 0.0087993415, 0.008989429, -0.037425973, -0.06439743, -0.19893761, -0.22366802, -0.20301723, -0.18636793, -0.11894466, -0.12330155, -0.09213842, -0.0066198604, 0.021889506, 0.15663852, 0.12777749, 0.13516265, 0.13368137, 0.19896507, 0.00915182, 0.09693798, 0.108963594, 0.086227305, -0.19853307, -0.25700536, 0.08061256, -0.13864607, -0.21756552, 0.0713114, 0.054819107, 0.15190662, 0.11597894, 0.19008127, 0.0896485, 0.008695897, -0.08712914, -0.08462621, -0.0029548234, -0.04119718, 0.09973107, 0.002264975, -0.08049871, 0.026485238, 0.12834999, -0.03878289, -0.125905, 0.118216954, 0.020054547, 0.13363338, 0.085890256, -0.08488618, 0.03420727, 0.05028969, -0.14953224, -0.030718463, 0.02116753, -0.027322419, -0.025447598, 0.013701886, -0.115722805, -0.16139933, -0.14942208, -0.0019218738, -0.04960487, -0.026080633, -0.097326145, -0.20429534, -0.018567424, 0.14295809, 0.059700906, 0.13072799, 0.17119285, 0.14775951, 0.18631183, 0.0223524, 0.025094578, 0.019429443, -0.17007437, -0.19983098, -0.14975184, -0.028598946, -0.01604671, -0.059938595, -0.03045276, -0.06398261, -0.011178135, 0.13684863, 0.34944037, 0.23633651, 0.20674211, 0.2711108, 0.13846192, 0.26111448, 0.30935493, 0.2114772, 0.023874687, 0.08097562, 0.009367232, -0.011490632, -0.10080272, -0.048586894, -0.11534482, -0.1562198, 0.065572344, -0.0049108802, -0.22450131, -0.029040122, -0.051211096, -0.1744709, 0.11029251, -0.14525142, 0.09619861, 0.040388558, -0.16056998, -0.05471469, 0.035163295, 0.014709126, 0.010123417, 0.13834953, 0.080261946, -0.20709577, -0.0016253382, -0.069546774, -0.038276788, -0.16588216, -0.020290421, -0.008104534, -0.011643382, -0.020019565, -0.16235587, -0.20219621, -0.2715073, -0.21405452, -0.14636083, -0.18133025, -0.34572172, -0.028204173, -0.055389848, 0.17353678, 0.0991345, 0.07529863, -0.016034132, 0.22007802, 0.26618496, -0.07170279, 0.18194675, 0.08704489, 0.024171202, -0.12930217, -0.036006324, -0.050258335, -0.087249205, 0.04236086, -0.078484826, -0.071667194, 0.16540168, -0.021718066, -0.021468056, 0.103348106, -0.06368369, 0.04219299, 0.13279706, 0.068926215, -0.020977201, 0.13809179, -0.078082606, -0.021840421, -0.038622625, 0.07947148, -0.021154543, -0.01882513, 0.01626161, -0.094895214, -0.0076072593, -0.033498116, -0.083192036, -0.12645432, -0.04870722, -0.17147511, -0.13050212, -0.17116185, -0.07136901, 0.15006328, 0.21803185, -0.007468246, -0.00068387674, 0.24330366, 0.10291465, -0.11204423, 0.24262053, 0.23070987, 0.0443832, -0.059101846, -0.07843035, 0.007687912, -0.119309574, -0.061819725, 0.1669448, -0.066751055, -0.09995577, -0.018242186, 0.00023851951, 0.06791293, -0.07441317, -0.24768889, -0.03623905, -0.1357012, -0.45747468, -0.041400556, -0.012742683, 0.07720753, 0.05901105, -0.08871169, -0.09265419, 0.13624325, 0.018362304, -0.14053391, 0.09658669, -0.031213192, 0.03244196, 0.12823066, 0.121448286, -0.03284713, 0.12904604, 0.13890816, -0.22822592, 0.14107727, -0.14857686, -0.030935172, 0.15811583, 0.02611025, -0.091537066, 0.112916544, -0.06893258, -0.14095828, 0.11787882, 0.14405353, -0.0018678402, -0.012360185, 0.032471612, 0.06491193, 0.0022883117, -0.0735273, 0.2318348, -0.018139815, -0.009108879, 0.017581657, -0.01797651, 0.16148907, -0.055290066, -0.04778289, 0.18493189, -0.0815544, -0.072912045, 0.15409188, 0.009500386, 0.057353053, 0.09593628, 0.0062154667, 0.00015431168, 0.04973001, 0.13482274, 0.06115422, -0.0751007, -0.1184581, -0.059787236, -0.14012468, 0.057345606, -0.013098355, -0.1302417, -0.13331512, 0.01922283, 0.009480931, 0.0046547214, 0.085928604, 0.10127593, -0.0442928, 0.009335582, 0.17684546, 0.0057469844, -0.02219784, 0.28788894, -0.015294441, -0.05819525, 0.35348812, -0.008426899, -0.009184202, 0.23282535, -0.11748552, -0.03477969, -0.06665801, -0.11173723, 0.020643702, -0.068102114, 0.06958551, -0.16181464, -0.07161064, -0.017332755, 0.0756726, -0.039984554, -0.081843846, -0.058716442, 0.0003547891, 0.0071141487, -0.068343304, -0.07435048, 0.043094676, 0.053533785, 0.040331893, -0.001988423, 0.09371513, 0.13552082, -0.05286158, 0.08533609, -0.044243548, 0.07038846, 0.05013009, -0.07120348, -0.025267404, -0.033140607, 0.011873111, 0.019128162, 0.095247984, -0.04540551, 0.04617186, -0.06232974, -0.17696133, 0.10018154, -0.030846288, -0.060699724, -0.025105916, 0.12624058, -0.05518839, -0.08527396, 0.03423137, -0.009654818, -0.039105896, -0.13196261, -0.15957776, -0.0132827265, -0.06495436, -0.12954572, -0.04651031, 0.10421324, 0.04426774, -0.058242988, 0.00027796158, -0.09690946, -0.105328664, -0.16177213, -0.09633572, 0.12956347, 0.022857256, 0.023856824, 0.0070099253, 0.009589677, 0.00080913963, -0.018894581, -0.09503732, 0.040207423, -0.013694446, -0.05298728, 0.09425896, 0.039325397, 0.059163515, 0.08518675, -0.05274614, 0.020722453, 0.076910615, 0.0050777644, -0.0007927454, 0.031115403, -0.058666192, 0.021935495, -0.052088816, -0.12790339, 0.06630773, 0.12461372, -0.1365665, 0.07072141, 0.15515119, 0.1413135, 0.05266851, 0.21768485, 0.2222961, 0.14322771, 0.117045365, 0.17168383, 0.06398847, 0.16037907, -0.038431775, -0.10418349, 0.11776102, 0.04535939, 0.006415999, 0.175529, 0.090699315, -0.0070625455, 0.11777146, 0.0142410295, 0.032587968, 0.13528335, 0.12581514, -0.021117598, 0.04389721, 0.06985867, -0.010967696, -0.055701014, -0.019273145, 0.0069116135, 0.014281007, -0.085073695, 0.12789835, 0.08554281, 0.05600057, 0.11201298, -0.32363153, -0.30628404, -0.13829617, -0.28922737, -0.551639, -0.5826215, -0.26584, -0.38712808, -0.30019504, 0.044047117, 0.12462311, 0.05066692, 0.06532222, 0.16955817, 0.011107117, 0.08283049, 0.055764083, -0.059977498, -0.038745664, -0.08390338, 0.039129708, -0.04658874, 0.09317413, -0.05364776, -0.020719977, 0.050919935, -0.008517624, 0.005977419, -0.030082505, 0.11440121, 0.039352704, 0.07743078, 0.14057443, 0.12056317, 0.099831946, -0.012793895, -0.03255862, -0.08345357, -0.0902236, -0.005555885, 0.054218154, 0.0025718356, 0.0017244807, -0.043133505, -0.05281979, -0.022533506, -0.12560812, -0.08595295, 0.058430385, -0.044303715, 0.036933906, 0.21435326, 0.079055674, -0.009116793, -0.25293428, -0.33177426, 0.035383537, 0.03279805, -0.41966704, -0.0027012164, -0.040459212, -0.06782306, 0.21966949, 0.024354445, -0.040450264, 0.027452217, 0.03028012, 0.079164006, -0.015864914, 0.016714057, 0.080671236, 0.002601826, -0.0527237, -0.22133078, -0.32964173, -0.06963059, -0.20531228, 0.08130696, 0.03682978, -0.05759158, 0.12141688, 0.10722009, -0.15197434, -0.20590799, 0.0009369562, -0.16362002, -0.21400681, -0.04294181, 0.010116693, -0.06733427, 0.025852526, -0.07423001, -0.25970632, 0.11054213, 0.036905877, -0.060971558, 0.14588764, 0.19932549, 0.09463415, 0.055376604, -0.033809185, -0.10717795, 0.046301316, 0.09716289, -0.10019511, 0.13024962, -0.0011522914, 0.04787679, -0.18846913, -0.3178276, -0.0853857, -0.21731278, -0.35792246, -0.0940124, -0.28244302, -0.13623893, -0.034239005, -0.10413788, -0.07985798, 0.024306567, -0.1544368, -0.09738515, 0.02130073, -0.07261638, -0.027354304, -0.07551404, -0.049829945, -0.1717401, 0.090424664, -0.1632659, -0.048953574, 0.18148984, -0.16048458, 0.024834674, 0.09341924, 0.040478576, -0.040601417, -0.050898407, -0.0951991, -0.029107505, 0.106211685, -0.062473647, 0.05978456, -0.035942517, 0.18368721, 0.17184421, -0.028191896, -0.01806425, -0.13892749, -0.028574292, 0.07792623, 0.06854621, 0.04621138, -0.011278289, -0.1078861, 0.029922295, 0.13604604, 0.007938126, 0.15498069, -0.13290451, -0.10319131, -0.0082810065, 0.084761605, 0.081400685, -0.06881629, 0.07100704, -0.05991565, -0.0063546486, -0.18078998, -0.12160217, -0.112148955, 0.086285464, -0.03507449, -0.08101952, 0.069060005, -0.001107293, -0.0057156705, 0.08779788, 0.066810586, -0.06626355, 0.0005615285, 0.16689058, -0.014057016, -0.15852983, 0.060026698, 0.06346137, -0.16811663, -0.16715272, -0.07891411, 0.10729798, -0.04420386, -0.12382617, 0.09631185, -0.088380925, -0.25865227, -0.042414572, -0.1913765, -0.3538619, 0.026232217, 0.31130108, -0.00092576735, 0.08549583, 0.24920131, 0.015616384, -0.049743358, -0.09989293, -0.16003577, 0.034527745, -0.00063675264, -0.14209542, 0.00612229, 0.08315361, 0.061707973, 0.05340477, 0.072535396, -0.054165155, 0.050654933, -0.043990996, 0.049973518, -0.03795222, -0.06859915, -0.099805884, 0.091532335, 0.03648033, 0.013798481, 0.0114784045, 0.11706118, 0.13348392, -0.047611225, -0.07107557, 0.060417887, -0.02275569, 0.05117288, 0.027665, -0.033810448, -0.010232537, 0.03811499, 0.0065656244, 0.061504517, 0.042011574, 0.07782825, 0.058202855, -0.0641363, -0.104921795, 0.0027595225, 0.1787336, -0.02546593, -0.043319535, 0.036596943, -0.22786696, -0.23793784, -0.13841946, 0.13825503, 0.1750632, 0.06949712, 0.11348232, 0.5089269, 0.30545598, 0.048241716, 0.26416582, 0.13246757, 0.25305474, 0.24702409, -0.11520756, 0.11999643, 0.03558344, -0.008635929, -0.013493267, 0.038512465, -0.098177455, -0.13040899, 0.13944106, 0.10960787, 0.07310396, 0.21978411, 0.078532815, -0.061638836, 0.08101233, 0.053482864, 0.14548464, -0.3299354, -0.30323654, 0.14859481, -0.2007968, -0.22668502, 0.10258181, -0.05927467, -0.18123233, 0.16573511, 0.16406699, 0.043746866, 0.0798728, 0.0600744, -0.056672953, -0.025278967, -0.007135097, -0.03876328, 0.075857215, 0.0992122, 0.22059038, 0.21845677, 0.19076918, 0.15329075, 0.06254403, 0.10057014, 0.11661556, -0.16476096, -0.027543604, -0.13245347, 0.008157201, 0.01974727, -0.020901045, -0.020950709, 0.06589237, -0.083802864, -0.106806524, -0.18514869, -0.040683117, -0.045214713, 0.04649454, 0.093550086, 0.10097386, 0.033977833, 0.019404035, 0.16844259, -0.084295504, -0.12059275, -0.013544848, 0.032770555, -0.16382307, 0.12460668, -0.0066383993, -0.07234165, -0.12638275, -0.36915356, -0.0986862, -0.093581244, -0.18611474, -0.028797362, -0.0072750077, -0.1127743, 0.015262196, 0.35428524, -0.14281198, -0.28644085, 0.23142895, -0.068898335, -0.12667364, 0.13798574, -0.044122864, -0.037520614, -0.102255, -0.35537913, -0.30777285, -0.0011601277, -0.17283529, -0.2191811, 0.03400733, -0.15272775, -0.11465866, 0.10491697, 0.06467982, -0.18138717, -0.031834017, -0.17751086, -0.14458494, -0.28137398, -0.34915388, -0.11600254, 0.13228899, 0.15955974, -0.08064044, 0.07772054, 0.0317154, -0.070068076, 0.04658515, -0.08263097, -0.137066, 0.0563161, -0.02480979, -0.24219973, -0.120398425, -0.36063245, -0.18429358, -0.15737142, -0.15034989, -0.06465526, -0.17126307, 0.011655898, 0.07975537, -0.03439776, -0.063895874, 0.13513468, -0.020620132, -0.096653715, 0.043238442, -0.14740439, -0.25680077, -0.15757106, -0.13700116, -0.4079045, -0.32472917, -0.13641278, -0.14219117, -0.2686648, -0.15615113, -0.08628722, 0.11433408, 0.013707533, 0.1269911, 0.14453815, -0.08743032, -0.038179677, -0.0016346959, -0.019831678, -0.17222925, 0.10384178, -0.09267421, 0.118246764, 0.24518679, -0.16088802, 0.103648074, 0.09287074, -0.045020994, -0.025603006, 0.05552007, 0.14326626, -0.08279909, 0.045021456, 0.030988675, -0.036212984, 0.060464326, -0.13199794, -0.48974887, -0.055037484, -0.21979979, 0.17605413, 0.09647228, 0.20429756, 0.1484869, 0.016676843, -0.10510893, -0.23992853, 0.0052337507, -0.24370863, 0.20711213, 0.12500529, -0.004436914, 0.21456021, 3.9374267e-05, 0.051019803, -0.03522444, 0.01824799, 0.013365536, 0.10018403, 0.22093804, -0.13035175, 0.016393552, -0.11676809, -0.044034295, 0.032587744, -0.046405416, 0.03246903, -0.16462988, -0.092699826, -0.047144316, -0.021025157, -0.0842278, -0.118876494, -0.04147845, 0.018036665, -0.07441805, -0.038729373, 0.12315703, 0.010206514, -0.03913955, -0.117428675, 0.23629723, -0.08129578, -0.15463895, 0.1640796, -0.1912381, -0.07400067, -0.13936533, -0.08960482, 0.044987608, 0.09540186, 0.06275384, 0.056159433, 0.0064424155, 0.01341674, -0.1308357, -0.1254845, -0.114655346, -0.04527933, 0.041792475, -0.06538012, -0.002522116, 0.10764627, -0.06861395, 0.059639987, 0.031441458, 0.00024708683, -0.023327691, -0.16258025, 0.10253573, -0.041218057, 0.12020727, 0.10373701, -0.22636488, 0.16496322, -0.17282245, -0.04534839, -0.07616977, 0.1254878, 0.029614154, 0.077457525, 0.2595403, 0.023654303, 0.1242859, 0.06521318, -0.05640315, -0.013339006, -0.1493567, 0.057402156, -0.061906163, -0.054387398, -0.118356064, -0.062306713, -0.11928426, -0.12787338, -0.074774295, 0.009884424, 0.041637007, 0.00051113067, 0.15936325, -0.026856601, -0.14029913, 0.10200811, -0.032162644, 0.26122305, 0.21795346, 0.016139325, 0.2205286, 0.08160203, 0.24036908, -0.09057935, -0.035297003, 0.0324519, 0.10406439, 0.1025339, 0.1013183, 0.009501048, -0.16111343, -0.095490895, -0.06970377, -0.11299441, 0.026412204, -0.041564908, -0.05867887, -0.2816841, -0.26329505, -0.3385879, -0.14878924, 0.063028015, -0.0821635, 0.08250734, -0.080944695, -0.05820165, -0.0666441, -0.034970406, 0.05908363, 0.10842544, 0.046546217, -0.023312239, 0.066650264, 0.18638329, 0.19818337, 0.31196272, 0.13523445, 0.22660477, 0.23947777, 0.2514291, 0.1400488, 0.048792057, -0.10794641, -0.16447105, -0.23982632, -0.3797258, -0.46338648, -0.2989814, -0.08169653, -0.19879018, -0.014624853, 0.06120226, 0.019716447, 0.07712918, -0.039985385, -0.014944956, 0.2123963, 0.14021654, 0.09164127, 0.14916545, -0.085845426, -0.040399037, 0.014542189, 0.0030459326, 0.094785, 0.11628378, -0.12318889, 0.015125918, -0.029207723, -0.007003631, -0.015664775, -0.029169992, -0.03454994, 0.056790058, 0.033439238, 0.13782634, 0.070708096, 0.081923135, 0.058390446, 0.07873498, 0.08448442, -0.008370466, -0.0370955, 0.07979333, 0.016327942, -0.1169197, 0.034384906, 0.069863, -0.11155408, -0.21894667, -0.15900634, -0.16837691, 0.012129599, -0.040028602, 0.00985754, -0.080701604, 0.024602354, -0.065878, -0.12946881, 0.018107, -0.03677244, -0.036104158, -0.15602413, -0.084295094, 0.026589507, 0.11928248, 0.059937943, 0.1264132, 0.19171599, 0.08534682, 0.073127516, 0.10059589, 0.028410034, 0.28224513, 0.16642283, 0.114186846, 0.10168555, 0.17268813, 0.10933609, 0.023389583, 0.020975433, -0.06389056, -0.05257953, -0.086682856, -0.051860183, -0.056410555, -0.069124356, -0.12747732, -0.23388268, -0.048105024, -0.070652224, 0.07156513, 0.06351184, 0.10572548, 0.08925057, 0.07821414, -0.0023152165, -0.013859651, 0.0037761356, -0.08262313, -0.081927195, -0.11664903, -0.18942016, -0.0568564, -0.38599417, -0.59823555, -0.38945034, -0.16632935, -0.3836669, -0.13431911, -0.23916614, -0.11186558, -0.18356669, 0.007219847, -0.07670287, 0.04856057, 0.07681612, 0.020373398, 0.128819, 0.042300276, 0.089537196, 0.12498742, -0.11530066, -0.01681661, 0.06608253, -0.19515216, -0.284686, -0.070694365, 0.030180989, 0.12405784, -0.021422599, -0.014269921, 0.14825118, 0.058909047, -0.09351742, -0.024286598, -0.0382232, 0.20218633, 0.20990285, 0.13545787, -0.018823685, 0.10184866, 0.088465154, 0.011655323, 0.06189238, 0.1938716, -0.022938985, 0.13637616, 0.106292106, -0.10356804, -0.08840347, -0.016257368, -0.3208982, -0.19756275, -0.0832882, 0.1986212, 0.15155894, 0.08990036, -0.08417932, 0.15606064, 0.05866184, -0.07424376, 0.06358495, -0.031559605, 0.005064265, -0.052330457, -0.037243415, -0.009918554, -0.049278855, -0.014947964, 0.009677172, -0.10136024, -0.0078014247, 0.13675411, 0.011636169, 0.11673676, -0.025035845, 0.14839259, 0.06097581, -0.041910924, 0.11469395, 0.027383339, -0.14103006, -0.23445797, -0.16085707, -0.11973027, -0.18288614, -0.11624672, -0.1039613, -0.16783471, -0.15047136, 0.1600489, -0.03392418, -0.15578747, -0.10237482, -0.008731525, -0.26179394, -0.17010969, -0.094724655, -0.149365, -0.028936889, -0.077818066, -0.09097671, -0.09606898, -0.06796447, -0.059327193, -0.044403158, -0.051770773, -0.032151736, 0.06992594, 0.14603096, 0.078329846, 0.19169566, 0.05970623, 0.17129561, 0.15339378, 0.23398225, 0.02004836, 0.088165216, 0.054273695, -0.06792967, 0.06903014, 0.0048635136, -0.14443253, -0.19871385, -0.1970794, -0.08283515, 0.021287654, 7.272477e-05, -0.03417195, 0.017934851, 0.064949445, -0.012649355, 0.03522987, 0.1552588, 0.0347493, 0.056403548, -0.10975245, -0.16365625, -0.052979633, -0.194471, -0.38262367, -0.16958953, -0.15828207, -0.2681174, 0.15715289, 0.11924905, 0.2044772, -0.082522936, -0.0076633585, -0.08176729, -0.19251011, -0.0673714, -0.13807568, -0.025124446, -0.016740493, 0.00028024396, -0.20166446, -0.16114849, 0.21556336, -0.04540244, 0.16449204, 0.25394785, -0.0075171315, 0.2719808, -0.037278596, 0.23462269, 0.2399836, -0.03134323, 0.12732424, 0.11385269, 0.30524504, 0.17337471, -0.2313597, -0.101318635, -0.19646831, -0.12706415, 0.04814535, -0.011200975, 0.09685798, 0.13769642, 0.075573586, -0.03485175, -0.25286534, 0.025923936, -0.44714937, 0.12566265, -0.19078442, 0.109895445, 0.1495506, -0.055836365, 0.08253788, -0.11732706, 0.24418806, -0.11570062, -0.08198396, -0.005233579, 0.017177448, 0.16152486, 0.011726978, 0.13432239, 0.25673094, 0.39053923, 0.2572214, -0.016844278, 0.25018024, -0.0019451346, 0.08573546, 0.07952913, 0.08666822, 0.027384019, -0.006734105, -0.037827328, -0.20200196, 0.050826732, -0.17391875, -0.31924447, 0.11343931, -0.015883341, -0.039335478, -0.07573198, -0.09048301, 0.18929349, -0.04427301, -0.034085583, 0.2045826, 0.11621671, 0.019769428, -0.07542833, 0.12143216, -0.08360924, -0.27780625, -0.034619745, -0.28106824, -0.24115504, -0.1851018, -0.27495387, -0.07948854, -0.19100086, -0.071462795, 0.026187582, -0.08596542, -0.06022208, -0.036366623, 0.07112416, -0.11742992, -0.028203508, 0.03677311, -0.090816714, -0.14010648, -0.016949698, -0.214398, -0.12124045, 0.15573806, -0.14775719, 0.08645939, -0.38255656, 0.057144705, 0.2636962, 0.0550614, 0.3664656, -0.013034167, 0.060444023, 0.05598628, -0.018152926, -0.07076223, 0.02258149, 0.15562953, 0.027573895, 0.35403314, 0.14616409, -0.31208324, -0.40616095, -0.16197386, -0.35415244, -0.28300604, 0.05533856, -0.2649366, -0.0059049297, -0.023493258, -0.0021164035, 0.16182023, 0.12801771, 0.030101255, 0.11129966, 0.0589835, -0.06815001, 0.030915704, -0.08128497, 0.020076532, 0.09776477, 0.13546352, 0.18336624, 0.22886951, -0.10690303, 0.13355222, -0.1482294, 0.06416925, -0.06460528, -0.08435272, 0.014292122, 0.027119743, -0.05803041, 0.065348655, 0.17434224, 0.08389676, 0.16761065, 0.017073035, -0.02684515, 0.084747136, -0.028752746, -0.044044387, -0.015999006, -0.034457922, -0.06825165, 0.03489093, 0.09695554, 0.19875489, 0.062215224, 0.012470456, 0.0006587749, -0.030643906, -0.09154364, -0.17205717, -0.180816, -0.37357286, -0.3494219, -0.23735294, -0.048999954, -0.0038424446, -0.027429862, 0.3033893, 0.35105523, 0.24227259, 0.001489342, -0.055147026, 0.0139623, 0.029498173, -0.028189093, 0.072191924, 0.07076091, -0.019002613, 0.0017123214, -0.2839091, -0.29327005, -0.09704759, -0.14657967, -0.09461273, -0.20528868, -0.07436112, -0.008639152, 0.0026536488, 0.10458769, 0.054634083, -0.10767917, 0.047399793, 0.00014550905, -0.13419235, -0.030407766, -0.02077465, -0.07102312, -0.11381087, -0.07383057, -0.031372238, -0.12776825, -0.06719393, -0.09733956, 0.082914695, 0.14034797, 0.03853481, -0.017692355, 0.03153592, -0.08360636, -0.16624255, -0.14312567, -0.093881056, 0.009900889, 0.025474504, -0.033455875, -0.21389093, 0.09436108, 0.017166093, -0.23110534, 0.088705465, -0.116687305, 0.16091998, 0.062440038, -0.13191912, -0.027314473, -0.043807335, -0.08258927, 0.045583628, -0.071854085, 0.01620335, 0.0705745, 0.056062773, -0.040661372, -0.052202966, -0.17853919, -0.03630174, -0.13070358, -0.08841831, -0.12911758, 0.48067337, 0.36377233, 0.25754037, 0.07866806, 0.0034217068, 0.01766237, 0.0042443424, 0.012705217, -0.030181792, 0.10280934, 0.0054520243, 0.08963259, -0.06947399, -0.045552697, 0.0016739217, 0.15876675, -0.14059655, -0.17611666, 0.3998828, 0.42590213, 0.16844557, 0.16557421, 0.0064962897, 0.014086226, 0.10337001, 0.04378834, -0.011028681, -0.012612594, -0.040492784, -0.08674075, -0.07854627, 0.15522106, 0.13989502, -0.18153471, 0.1205014, 0.19006278, -0.0111612, 0.005948899, 0.23776807, 0.124870144, -0.06054346, -0.025043404, 0.06492987, -0.008455565, -0.01266414, 0.07496755, 0.21704717, 0.017028293, -0.13980542, 0.08503986, -0.22333618, -0.018583048, -0.0017161093, -0.18011597, 0.035338856, 0.0814318, -0.012634541, 0.16752087, 0.096560076, -0.003124291, 0.18834777, 0.045596886, -0.040406287, 0.18849476, 0.013933123, -0.038388234, -0.23345548, -0.21366017, -0.30665675, -0.027595874, -0.08261345, 0.009363616, 0.13769895, 0.115854494, 0.14582093, -0.13993914, 0.11175626, -0.25996023, -0.20163657, -0.104464896, -0.05885888, 0.08017793, 0.16759305, 0.05238833, -0.12282098, -0.008420516, -0.15039036, -0.033671893, -0.045468375, -0.07669418, 0.090971954, 0.07828777, 0.035070833, -0.098708525, -0.068524905, -0.040209204, -0.11960523, 0.067269534, 0.13791774, -0.08542402, -0.031177005, 0.0385764, -0.018748436, -0.027682735, -0.17009483, -0.11329181, 0.011223926, -0.13454124, 0.06363609, 0.05076451, -0.07696161, 0.0646685, 0.018044498, -0.004954817, 0.07508137, 0.11616114, 0.08105632, 0.076343484, -0.035552148, 0.06998548, -0.018159075, -0.113970675, -0.13802993, -0.037763715, 0.018984351, -0.07828976, 0.18638739, -0.016030386, 0.16321789, -0.25454888, -0.028578637, -0.079266295, -0.14529991, -0.0134563, 0.03514685, -0.08767405, 0.009654897, -0.081207596, 0.028081415, -0.102189355, -0.17778775, -0.3428961, -0.30500105, -0.33700952, -0.35059723, -0.29046497, -0.3355085, 0.092042975, -0.040482584, -0.008458728, 0.13377105, 0.065728694, 0.021876063, 0.105993845, 0.12402061, -0.0036999334, -0.19057687, -0.087105766, -0.10479731, -0.3639074, -0.24960682, -0.2347666, -0.19482817, -0.07371897, -0.25028872, 0.027247405, 0.03932978, -0.04022051, 0.04331525, 0.033410225, 0.05608124, 0.17336708, 0.14494014, 0.06996081, -0.019302547, -0.063898094, -0.34307966, 0.084629975, -0.073765785, -0.18795057, 0.16618723, 0.16755255, -0.030277768, -0.08685405, -0.040954016, -0.073081195, 0.11693275, 0.053733677, 0.052493002, -0.02083437, 0.016869156, 0.029893763, 0.010539793, 0.10722811, 0.10322067, 0.044238184, 0.08472071, -0.018952306, 0.04895185, 0.060875416, -0.02287388, -0.1118472, -0.15868667, 0.046550162, -0.17516313, 0.034317166, -0.0066052796, -0.18054523, -0.019207854, 0.00039394855, -0.13666752, 0.015438141, -0.031730846, 0.0026357388, -0.16006508, -0.04710724, 0.035289302, 0.033748556, -0.02430834, 0.023928318, -0.056200657, 0.11590232, 0.060105152, 0.07424216, 0.047994167, 0.04709023, 0.06941481, 0.0631813, -0.073616505, 0.14146115, 0.10576559, -0.042383015, 0.22383748, 0.23111054, -0.0074891374, 0.14839013, 0.19276172, 0.07264723, -0.02855128, -0.021161366, -0.16435449, -0.021408549, 0.041185487, -0.20198457, 0.0015386752, 0.15953812, -0.18333457, 0.015790667, 0.14884658, -0.02362142, 0.18990773, 0.25023988, -0.084965974, 0.15386286, 0.017877005, 0.2369275, -0.034498554, -0.022587117, 0.0036438098, -0.12026549, -0.19940428, 0.06449316, -0.03736506, -0.017517429, 0.079373784, 0.098266326, 0.0769965, -0.0696879, -0.06350409, -0.13613681, -0.10138865, -0.16378133, -0.088727966, -0.24637853, 0.045520592, -0.063779265, -0.2874052, 0.022884274, 0.03174194, -0.27588022, -0.10358532, 0.018209053, 0.069297045, 0.0134665035, -0.051330775, -0.03534461, 0.06314461, -0.07300436, -0.044032667, 0.05200341, 0.113195546, 0.16275303, 0.023429627, 0.026806742, 0.13140322, -0.104539685, -0.17436282, 0.0005744752, 0.002101677, -0.07835132, -0.097337626, -0.044307545, 0.02274973, -0.04272626, 0.09391926, -0.01796088, -0.23018612, 0.034188077, 0.13339072, 0.16781698, 0.028409412, -0.045433488, 0.10157698, -0.22349797, -0.18588029, 0.14380334, -0.11470807, -0.085865796, -0.33798957, -0.50924313, -0.29934826, -0.7484524, -0.50708044, -0.34216613, -0.37064773, -0.26330212, -0.13363147, -0.05402216, -0.13971741, -0.079306096, 0.021727009, 0.014267737, -0.1147727, 0.1704155, 0.06606828, 0.010698692, 0.0546119, -0.013246977, 0.14749764, -0.009457756, 0.108860455, 0.13365887, -0.14036545, 0.14241613, 0.1966132, 0.17778783, -0.0015809839, 0.04069808, 0.08823574, -0.060641974, 0.07679878, 0.14892554, -0.037130516, 0.15790367, 0.023448164, -0.1947898, -0.08246022, -0.2609766, -0.34012344, -0.2814932, 0.012602688, -0.102379344, -0.14976451, 0.030689733, 0.054585412, 0.19994606, 0.038759857, 0.13885932, 0.09599472, 0.03418386, 0.12790413, 0.16981307, -0.094956286, -0.21084689, -0.13938536, -0.0062280498, -0.17165379, -0.13835016, 0.016226087, -0.10928429, 0.018519724, 0.052392345, -0.07734967, -0.042704046, 0.056967977, -0.06598713, -0.0012481983, -0.03822146, -0.10566357, 0.034562733, 0.07844268, -0.0216053, -0.04352825, 0.07183147, 0.07807748, -0.0971647, -0.015723472, -0.12795575, -0.054036606, 0.018181426, -0.2859986, -0.032436445, 0.17060861, -0.063449085, 0.06405521, 0.114419825, 0.04917804, 0.01770896, -0.013150205, 0.01116675, -0.14800027, 0.062208056, 0.03717516, -0.027938357, 0.024489282, -0.09270157, -0.010483273, 0.14938682, 0.06974585, 0.06341441, 0.06393643, -0.058259126, -0.13624905, 0.055385567, -0.13129306, -0.08233542, 0.014537901, -0.17939758, 0.00740235, -0.21687369, -0.44677067, -0.20858337, -0.04392069, -0.38780427, -0.23832327, 0.05896017, 0.085251674, 0.0176445, 0.030067395, 0.009643668, 0.0017717183, 0.04832505, 0.1409908, 0.11202217, -0.16488543, -0.11538187, -0.16567813, -0.15960836, -0.12084884, -0.25555778, 0.037996642, -0.004319102, -0.06801419, -0.1510756, -0.061668567, 0.06643047, -0.14611427, -0.11701425, 0.06840703, -0.07643093, 0.02666498, -0.008337929, 0.281743, 0.16236249, 0.20510095, 0.3001955, 0.27657732, 0.17483625, 0.31849247, 0.2436715, 0.12728393, -0.058350883, -0.016529625, -0.088041626, 0.06289444, 0.015587525, -0.10543404, 0.043901138, -0.052191056, -0.011882441, 0.038566303, -0.0021423833, 0.033328477, -0.069456555, 0.19876373, 0.09821613, -0.13935275, 0.07700242, 0.04707805, 0.16859235, -0.04924427, -0.11849891, 0.19754581, -0.19704174, -0.024907134, 0.09493933, -0.048464634, 0.082427375, -0.120308876, -0.22825283, 0.08776094, 0.005310892, -0.13790254, -0.15727848, 0.09333582, 0.025585547, -0.09365105, 0.08524201, 0.08279814, 0.25218624, -0.033287913, 0.25047815, 0.23127948, 0.043554146, 0.22112794, 0.21433347, 0.044331152, -0.23256613, 0.06576535, -0.04152636, -0.029342629, 0.06876016, -0.06570417, 0.07344466, 0.057204787, 0.0057335114, 0.008822741, 0.057787336, -0.143664, -0.07072258, 0.17492671, -0.079707615, -0.03680197, 0.099671416, -0.05813414, -0.18264234, -0.037786342, -0.09657129, -0.0615281, 0.043093815, 0.005649818, 0.043217, 0.013825572, 0.043180924, -0.110594295, -0.07962883, -0.10171335, -0.122271165, -0.14635141, -0.12296516, -0.06067194, -0.18141799, -0.13494048, -0.28859815, 0.18434614, -0.11329472, -0.18523923, -0.029987484, 0.038448207, -0.13944513, -0.08012938, 0.048254658, 0.068314835, -0.042417925, -0.23078398, -0.037675653, 0.10027052, -0.21552423, -0.043021657, 0.026475465, 0.10135056, 0.07583187, -0.19804484, 0.21346022, -0.18701987, -0.19247553, -0.0026200125, -0.20234933, 0.15807694, 0.04281816, 0.017173938, -0.14844303, 0.11799873, 0.010981294, -0.2005035, -0.05361445, 0.013865438, -0.0038983603, -0.07107885, -0.052401714, -0.14452024, -0.08443441, -0.02778742, 0.11459618, -0.12944709, -0.06867254, 0.14132914, 0.0070995595, -0.06816528, -0.053679146, 0.078613885, 0.078284934, -0.010583541, 0.009110323, 0.10537548, 0.009656169, -0.11280409, -0.25207216, -0.13535058, -0.20717673, -0.241381, -0.013270897, -0.32365644, -0.2516609, -0.15377131, -0.08704933, 0.01788151, -0.046953652, -0.12862518, -0.22759698, -0.14642316, -0.14034265, -0.084441096, -0.031143451, -0.04950586, -0.026073948, -0.012799843, 0.01005223, 0.14232826, -0.121283, 0.14595261, 0.065705806, -0.10233951, 0.10395583, 0.024632106, -0.12088274, -0.018438226, 0.17624119, 0.15400235, -0.10770252, 0.016028788, 0.081010655, 0.2658549, 0.43486345, 0.29766995, 0.08369973, 0.11025377, -0.054485686, 0.11267658, -0.06416639, -0.15561701, -0.0570368, 0.011958986, -0.045908973, 0.05557295, 0.13415904, -0.1438253, 0.0570675, 0.041413248, 0.05600951, -0.10947232, 0.119781725, 0.031886365, -0.04775887, 0.1381363, 0.03521584, -0.04292777, -0.029652195, -0.11259322, -0.3063702, -0.15451136, -0.11653586, -0.0024647363, 0.07153774, 0.1290833, -0.030625692, 0.03767804, 0.16962907, -0.040499322, 0.0017808233, 0.0037258249, -0.05634214, 0.18826504, 0.104407094, -0.21354274, -0.08440616, -0.015425102, -0.16781847, -0.07115994, -0.17225495, -0.06511586, -0.08204408, -0.1424027, 0.085338086, -0.027669938, -0.091379024, 0.16684166, 0.093745776, 0.14667015, -0.09637151, -0.018490098, 0.09171361, -0.089208126, -0.15231854, 0.10468456, -0.057549186, 0.062207215, 0.04992811, 0.003826315, 0.18460001, 0.055532042, 0.009983979, 0.018599413, -0.0032822238, 0.047185075, -0.05511617, 0.05621334, -0.005015245, 0.06591154, 0.06856453, -0.12062165, 0.09336792, 0.085787304, 0.16280022, 0.13785993, 0.082398936, -0.043442667, -0.22968072, -0.14596339, -0.13838835, -0.06825009, -0.07580956, -0.13708864, -0.15160944, -0.10189995, -0.07841228, 0.12508972, 0.07376913, -0.013905356, 0.10984455, 0.22978407, 0.09804974, 0.08666709, 0.15358163, 0.015484733, -0.10591839, -0.058249176, -0.010409707, -0.08672074, -0.0910515, -0.316533, -0.27191734, -0.096572846, -0.55351967, -0.4254882, -0.34135854, -0.24517627, -0.24084638, -0.15896477, 0.015230498, -0.04345544, -0.104419746, 0.10290339, 0.027843824, -0.042676605, 0.064812064, 0.08070607, -0.051880833, -0.09301389, -0.15314099, 0.005594403, -0.13100621, -0.27356064, -0.19961882, 0.04579159, -0.17554821, 0.0011492951, -0.1646371, -0.19742225, -0.09011706, -0.1395077, -0.2862204, -0.09230694, 0.100416176, 0.009823008, 0.13198835, 0.22932634, 0.15218648, 0.1807261, 0.17687482, 0.17629588, 0.07662383, 0.20640916, 0.0012133848, 0.029319802, -0.084365256, -0.26228645, -0.026948156, -0.22399387, -0.50945675, -0.37664086, -0.22095947, -0.26383325, 0.010294474, -0.07496463, -0.08513248, 0.23263806, -0.022817483, 0.009795848, 0.03218032, -0.009471248, -0.09942869, 0.064331636, -0.16109358, -0.07556476, -0.035867132, -0.033608817, 0.029125117, 0.039104242, -0.13003728, 0.03851132, 0.16548242, -0.041898347, 0.086384214, 0.09148298, -0.015836626, -0.11405841, -0.032104913, 0.03172705, 0.103103444, 0.0786272, 0.22856946, 0.2521322, 0.27649236, 0.23246612, 0.14925279, 0.32043344, -0.03344092, -0.002722539, 0.09832186, 0.08473991, 0.012213297, 0.14796132, -0.025220983, -0.06403625, 0.13134088, 0.03134193, -0.0078484025, 0.080971435, -0.15084364, -0.03892784, 0.0771697, -0.15656243, -0.15795399, 0.02177592, 0.044007484, -1.2771889e-05, 0.099080876, -0.006054283, -0.12861307, -0.12684368, 0.0037981602, 0.051988255, 0.09028298, 0.1904927, 0.14295204, 0.17703404, 0.030049788, -0.12945317, -0.21427307, 0.13844025, 0.058298655, -0.09971535, 0.06388186, -0.08068369, -0.12190695, 0.03981678, -0.059313275, 0.022815159, -0.03509237, -0.01794574, 0.036375288, 0.18541467, 0.21422654, 0.20735805, -0.05350749, -0.005556476, -0.1505496, 0.14952666, 0.0756752, 0.028257553, -0.032514267, -0.012774044, -0.03622845, 0.015430027, 0.041885737, 0.13925648, -0.08779998, -0.123240314, 0.071840055, 0.000100823316, -0.16336928, 0.08863224, 0.020871097, -0.0802218, -0.02142284, 0.06364166, 0.059355203, 0.029869253, 0.06281195, 0.021183258, -0.018007003, 0.09329566, 0.043103855, -0.02995646, 0.09514944, -0.1433483, -0.05285693, 0.11634797, 0.13506113, -0.14742805, 0.037887063, -0.018312192, -0.12959307, 0.06776114, 0.12856612, 0.058160122, 0.016925724, -0.07295067, 0.012239107, -0.1633153, -0.16922309, -0.17029358, -0.08842321, -0.01837734, -0.014996, 0.10545347, 0.14014365, 0.09638159, -0.15318245, -0.33816716, -0.18312997, 0.0015517301, -0.4323505, -0.09516478, 0.17996094, -0.15214625, -0.028449921, 0.11946131, -0.043656718, -0.02173179, 0.076904915, -0.023643222, 0.07543949, -0.040514234, 0.0021973718, 0.014940888, -0.095745996, 0.0102891335, -0.04584023, -0.0039795893, -0.06789655, 0.037089717, -0.005541654, -0.059802912, -0.020427672, 0.14464362, 0.15354188, 0.04924442, 0.17499492, 0.13187313, 0.20521988, -0.050624337, 0.00035795162, 0.0045305337, -0.31306455, -0.27849537, -0.2822608, -0.04774572, -0.2048899, 0.063132934, 0.15286258, 0.047858976, 0.05844931, -0.17988051, -0.38723424, -0.32711512, -0.02726155, -0.31402117, -0.25219128, 0.0890955, -0.0043911263, -0.07364727, -0.105106175, -0.1943137, -0.11048922, 0.010821092, -0.0026978585, 0.11637457, -0.08036453, -0.09939534, -0.06118795, 0.09448244, 0.1568009, 0.116880156, 0.07490282, 0.0070547694, -0.039847072, 0.041795347, -0.064495526, -0.00038104347, 1.6741144e-05, 0.04304937, -0.09234789, -0.047459945, -0.11855371, -0.034019336, 0.045786496, 0.010681845, -0.054387424, 0.050030366, -0.034334682, 0.015429817, 0.0384774, -0.09591891, -0.05135334, 0.067678355, 0.058420558, -0.17286785, -0.15029171, -0.21002941, -0.3161032, -0.0628358, -0.28814334, -0.30597943, 0.27012518, 0.19615777, 0.05773075, -0.0976834, -0.35362893, -0.2922163, 0.15397051, -0.21881738, 0.20731178, 0.49162054, 0.30568683, 0.49018636, -0.10366057, 0.10129648, 0.0356418, -0.07411169, 0.09436971, 0.09428871, -0.00428897, -0.042307965, 0.06008772, -0.009078068, -0.039218232, 0.18144035, -0.23991849, 0.2990825, 0.12076408, -0.061603084, 0.28855163, -0.15806606, -0.27167454, -0.068338394, -0.16843484, -0.044547606, -0.1067715, 0.09420372, -0.085288346, -0.042256538, 0.07856965, -0.18292041, 0.10802385, 0.2755802, -0.009946355, 0.12727277, -0.11891537, -0.04141127, -0.0984907, 0.09786953, 0.057419404, -0.04845047, 0.18689659, -0.08119592, 0.30713633, 0.09080983, -0.019434836, -0.034767542, -0.1900013, 0.29676113, 0.105613016, 0.280818, 0.14520863, 0.28190067, 0.01096351, -0.06449267, -0.051458914, -0.06495117, 0.060712773, -0.23868537, -0.20554072, -0.09522117, -0.29300472, -0.30051547, -0.24560383, -0.19175452, -0.35009846, -0.09045898, -0.030698026, 0.22518262, -0.00525539, 0.02242884, 0.0934587, -0.06521635, -0.034543425, 0.057841323, 0.14719056, -0.09065887, 0.020171663, 0.07194055, 0.0370089, 0.110978425, -0.08498533, -0.1595775, -0.15784536, 0.13095093, -0.036187194, 0.10976084, 0.105574206, 0.03189463, 0.111086965, -0.084034815, -0.0031026504, 0.057981975, -0.13477102, -0.40135315, -0.20532635, -0.10034153, -0.20997173, -0.18159609, -0.03555036, -0.022859376, -0.071574606, -0.005528578, 0.08094215, -0.001162596, 0.029789617, -0.15010692, -0.11273164, -0.10656622, -0.07195943, -0.06783252, 0.047045447, 0.18848169, 0.16927786, 0.066782795, 0.1667206, -0.07218771, 0.07394576, 0.056225747, 0.10597371, 0.00476233, -0.22951865, -0.043361094, -0.25365546, -0.077860154, -0.020836903, -0.25802872, -0.043308377, 0.09429095, 0.033811674, -0.1650271, -0.06725578, -0.10000928, -0.056583703, -0.13767198, -0.07421256, -0.12534693, -0.117979035, 0.099423856, 0.111632295, 0.06810821, 0.14739153, 0.22563511, 0.31103998, -0.06969151, 0.42325014, 0.09745782, 0.08393887, 0.0005358738, 0.18046501, -0.04532817, -0.1365719, -0.061354287, -0.21747094, -0.23783872, -0.060210254, 0.071528845, 0.06933637, 0.006283119, 0.16238715, 0.13882813, 0.01685438, 0.18385583, 0.021933937, 0.029804904, -0.064819686, 0.11207863, 0.22127485, -0.030836098, 0.08354102, 0.1496449, -0.19099568, -0.051261045, 0.2093228, 0.1298546, 0.0654374, 0.18571164, 0.031662866, -0.0129424855, 0.12448889, -0.093320794, -0.10005741, -0.0682625, -0.058398783, -0.00031673536, -0.069851495, 0.051418, 0.080105945, 0.0394348, 0.06470578, 0.10431016, 0.051645927, -0.13347673, -0.032384135, -0.07013807, -0.17460656, -0.1122694, -0.24262112, -0.30530998, -0.24489662, -0.24349982, -0.086399704, -0.11753029, -0.096112974, -0.01071034, 0.013169959, -0.16318682, 0.092338726, -0.09685777, -0.18140864, 0.08143362, 0.24397415, 0.34199506, -0.18489951, -0.040208425, 0.19509661, -0.23585859, -0.20099176, 0.1336346, -0.17737427, -0.14867985, -0.030570775, -0.07146009, -0.065178536, 0.08359893, -0.038387753, 0.027617738, 0.09904175, -0.20479019, -0.11375977, -0.004610213, -0.20752853, -0.1951472, 0.07128279, -0.17286423, -0.08537706, 0.101865, -0.0027687796, 0.10469145, 0.16048694, -0.09749497, -0.026519287, -0.031885784, -0.22627656, -0.1179997, -0.26559165, 0.0023152996, -0.0011433534, 0.018517442, -0.015751487, 0.07760766, 0.07358458, -0.15657781, -0.10445664, -0.18099159, -0.0069706375, -0.15858142, -0.18278386, 0.1381551, 0.044410434, -0.08666967, 0.092540756, 0.04805602, -0.019062834, -0.04635527, -0.054430943, 0.09585447, -0.10363909, 0.0134270135, 0.113863245, -0.12683178, -0.07714976, -0.036899224, 0.048427872, -0.15018085, -0.32987967, 0.24015653, 0.2756565, 0.013651557, 0.18708083, 0.14669317, 0.14775759, 0.29358014, 0.14911892, -0.15650317, 0.36221445, 0.26133767, 0.15594539, 0.34356174, 0.21344954, 0.09565029, -0.07219687, -0.1087619, -0.015812894, -0.10315962, -0.11161919, -0.06294354, 0.0064433753, 0.01167107, 0.020086909, -0.071707234, 0.0320241, 0.17447747, 0.11142513, 0.06341397, -0.09776337, 0.042359777, 0.014019383, 0.046415035, -0.09392737, -0.11223529, -0.0787565, -0.16450274, -0.27027825, -0.17194855, -0.12481044, -0.111298196, 0.0030142772, 0.025601873, 0.08356827, -0.059938546, 0.14741945, -0.01460978, -0.09408869, 0.022165852, 0.040960986, 0.076943815, 0.023373863, 0.08460812, -0.023884606, 0.07940429, 0.15036295, -0.16277386, 0.095695704, -0.0346502, 0.11676006, 0.1237175, 0.104745366, 0.1775122, 0.1656676, 0.28386396, 0.18982056, 0.26983017, 0.14334263, 0.13547134, -0.06371134, -0.117355205, -0.018342929, -0.088632725, -0.06896312, -0.04064406, 0.03402111, 0.10525137, 0.03268353, -0.04344101, -0.102145255, -0.0598735, -0.075654365, -0.23911929, -0.04389772, -0.025455466, -0.12142046, -0.046168968, 0.1563727, 0.12752756, 0.07924046, 0.111782104, 0.031887084, -0.035507496, -0.028020203, -0.028987337, -0.029801507, 0.0843662, 0.07400023, -0.038735956, 0.06293028, -0.08062221, 0.0032323105, -0.035452563, 0.11893051, -0.00972571, -0.09828419, -0.22802225, -0.155278, -0.1789982, -0.23325649, -0.15994148, -0.051547185, -0.097053416, 0.031332683, 0.040463407, -0.0824417, -0.049273048, -0.009976891, 0.025415774, -0.09780156, 0.11245509, -0.10118193, 0.060965538, -0.032344297, 0.0017249358, -0.08710111, 0.02607415, -0.10887067, -0.09567263, -0.03047745, -0.069043, -0.037885416, -0.043697324, -0.2660961, -0.15748899, -0.24716407, -0.03664559, -0.061874457, 0.08088542, 0.023138562, -0.044482104, -0.063360296, 0.082655326, 0.031131275, -0.029599328, 0.091703385, -0.06376686, 0.07549945, 0.00787204, -0.020035448, -0.0070619415, 0.014470693, -0.02705833, 0.052713737, 0.029590363, -0.037033018, 0.08609082, 0.017153116, -0.05055905, 0.030600943, -0.013863193, -0.08298904, -0.0055801226, 0.111352146, -0.063161425, 0.13284719, 0.18330225, -0.11341636, -0.0011779369, -0.075142376, -0.09996386, 0.13136369, 0.04313184, -0.05335039, 0.043337982, -0.011605946, -0.10307961, -0.07534188, -0.08557898, -0.07491346, 0.15600695, 0.15114255, 0.06260161, 0.16065657, 0.32998157, 0.18087351, -0.08080411, 0.06519476, -0.040579002, -0.23561446, -0.2408979, -0.07368243, 0.05495813, 0.040869143, 0.06403489, 0.07626517, -0.038609248, 0.08521022, 0.12800516, 0.100800306, 0.0028928923, 0.14191997, 0.11755071, 0.11638785, 0.07483964, -0.04732545, -0.115489796, 0.05014122, 0.118183784, 0.012645259, -0.01711125, 0.08326875, 0.012897722, -0.03549845, -0.091849186, 0.098020315, -0.0620524, -0.091959246, -0.06941924, -0.11880607, -0.0704203, 0.07965318, -0.06709443, 0.0561667, -0.15566793, 0.1837156, 0.2231965, -0.099543355, 0.0977001, 0.12286769, -0.12964568, 0.2442157, 0.15863517, 0.12763672, 0.08154235, -0.04752489, 0.110479444, -0.0257369, 0.110965855, 0.2496762, 0.22228707, 0.2626045, 0.20670788, 0.04540343, 0.040045492, 0.13219045, -0.008381152, -0.098667264, -0.29754817, -0.09261473, -0.05434792, 0.05358687, -0.06109143, 0.06267584, 0.029906916, 0.015835281, 0.15007274, 0.07059261, 0.07622546, 0.072200716, -0.12934694, 0.014320841, -0.019659908, -0.05519676, -0.118488595, -0.08432855, -0.02319985, 0.014140987, 0.038654428, 0.09443498, -0.01380369, -0.08930059, -0.07457786, -0.1614119, -0.15591997, -0.06678236, 0.05390609, 0.18823545, 0.014001068, 0.1471106, 0.15638699, -0.044972796, 0.22429289, 0.104845785, -0.20622072, -0.0474828, -0.08361685, 0.16494833, -0.274322, -0.23594032, 0.029127708, -0.16775446, -0.011205611, 0.13914129, -0.0789803, -0.12985161, -0.03041966, 0.17843142, 0.13064401, 0.053457893, 0.14557509, 0.26494935, 0.17902039, -0.0019110839, 0.040802293, 0.06670853, -0.01503038, 0.14659575, 0.11360293, 0.12214534, 0.10993059, 0.054401897, 0.046002492, -0.0058324602, 0.0021018393, -0.026240041, 0.025881363, -0.021743724, -0.20218024, 0.04870848, 0.070309535, 0.1320705, 0.061730143, -0.034532744, 0.15591912, 0.017621206, -0.20481478, 0.04596802, -0.24505706, -0.29602575, 0.07802247, 0.06859769, 0.009903193, -0.016232707, 0.080023676, 0.13913117, 0.11288017, 0.15442958, 0.06605157, -0.0076154554, -0.020283906, -0.19839005, 0.043126028, -0.10289392, -0.21899123, -0.09506907, 0.001338682, -0.13176605, -0.0011802976, -0.071387485, -0.021925706, 0.036217656, 0.084989786, 0.07332016, -0.167415, -0.13176611, -0.07283661, -0.012414556, -0.11783837, -0.042014014, -0.059362244, 0.028707419, -0.006121894, -0.058387466, 0.11976332, 0.058137733, 0.10317865, 0.029635482, -0.053119075, 0.19204904, -0.0071597593, -0.040629145, 0.07398241, -0.024750572, -0.110388845, -0.024389016, 0.11353209, 0.12614734, -0.24663198, -0.094768845, 0.020797584, -0.17166479, -0.017807066, 0.06131633, -0.062521584, -0.08403779, -0.04142015, 0.020205637, -0.15649973, -0.047777973, -0.10640465, -0.07161356, -0.092057474, -0.085304, -0.15611695, -0.1038554, -0.0033279974, -0.18661478, -0.17574641, 0.0058954586, -0.064924, -0.09135351, 0.089062534, 0.13902731, 0.11514726, 0.040494554, 0.09829567, 0.071530834, 0.1947297, 0.15252726, -0.041954268, -0.01867168, 0.0048507843, -0.070344165, 0.054262787, -0.027031401, 0.07158408, -0.03979902, -0.018313417, 0.065440215, 0.05303557, 0.0011275489, 0.08799321, -0.0107701775, -0.0036948307, -0.075169794, 0.014065008, -0.002427017, -0.13532583, 0.037240274, -0.08611026, -0.013523813, -0.1284991, -0.05626894, 0.08518374, -0.095879264, 0.07217995, 0.0987523, 0.16158862, 0.14259933, 0.1180862, -0.012516453, 0.24545202, 0.17607649, 0.06895594, 0.19403446, 0.20738848, 0.125969, 0.05509995, -0.13726167, 0.09065534, 0.012090847, -0.05568138, 0.035029035, -0.038506985, -0.0016305493, 0.17428951, 0.06135463, -0.21881613, 0.13022812, 0.021685991, -0.520948, 0.05902041, -0.016192673, -0.34888837, -0.047334503, -0.06491666, 0.028896894, -0.08016582, 0.011809577, -0.13340953, 0.07190784, 0.022203544, -0.072538, 0.052522313, 0.069133736, 0.091885336, -0.10871822, -0.47321883, -0.52953523, 0.17015989, 0.042301998, 0.033128746, 0.13241717, 0.016118154, -0.4001365, 0.09471452, -0.16229914, -0.6866216, 0.06368822, -0.12917699, -0.6452048, 0.06318981, 0.08761332, -0.04068021, 0.0063826963, -0.043433007, -0.11392148, 0.036647584, -0.000101113634, -0.042121675, 0.028153347, 0.053512193, 0.02644005, 0.0787126, -6.4764754e-05, 0.039409753, -0.021886826, 0.03948935, -0.002128805, 0.09271149, 0.10340041, 0.14340794, 0.065583095, 0.025432775, -0.02902689, 0.12610325, 0.014086852, 0.06992662, -0.009750852, 0.043221842, 0.0522531, 0.116193466, 0.0045713745, -0.019606046, 0.082424134, 0.02024093, -0.062246893, -0.13705346, -0.06498362, 0.24364433, -0.35156387, -0.38877338, -0.059421763, -0.07905178, -0.14207171, 0.0044846293, 0.018162318, 0.035841964, 0.045325324, 0.028027622, 0.06044119, 0.06812224, -0.08356382, -0.004659601, -0.028830769, -0.11621349, -0.27113867, -0.21444811, -0.23945698, -0.44418877, -0.44468543, 0.021991588, -0.115754224, -0.102184676, -0.0363158, -0.057556592, -0.01587792, -0.0133143095, -0.1244525, -0.122728035, 0.06956567, -0.08462916, -0.027376093, -0.0836601, -0.044116836, -0.031982087, -0.15990523, -0.28615764, -0.1816141, 0.069018036, -0.04121999, -0.10981547, 0.07726664, 0.073709026, -0.05934361, 0.08463996, 0.018739276, 0.0271586, 0.016081065, 0.093224674, 0.097494826, -0.2928314, -0.08793731, 0.05458929, -0.3131581, -0.27402297, -0.18659654, -0.072297014, -0.13683553, 0.07024659};
static const float layer2_b[] = {0.044936482, 0.032728776, -0.004393851, -0.07926312, 0.091686524, 0.14820482, -0.2733501, -0.12381026, -0.07268995, 0.09430548, -0.11412904, 0.23566014, -0.11950408, 0.10653406, -0.18669726, 0.08634803, -0.056485716, -0.008328867, -0.04109823, 0.23938783, 0.20113166, 0.092599906, 0.047474705, 0.07555388, 0.057000734, 0.19262424, -0.09956869, -0.08969662, 0.17732367, -0.3085174, -0.12388453, 0.47731027};

static const float layer3_w[] = {-0.068975456, -0.028296577, -0.04261267, 0.09471328, 0.07311125, -0.029654628, -2.5612244e-05, -0.10700813, -0.22107892, -0.033574935, 0.07577719, -0.010571917, 0.13222659, 0.06371565, 0.2078827, 0.07790306, 0.028845351, 0.11152939, -0.038485684, 0.015453522, 0.1131774, 0.066408925, 0.06804994, 0.089570254, -0.19161382, -0.18912165, 0.05652326, -0.024892287, -0.05031178, -0.06371251, 0.1449856, -0.048849836, 0.04090356, -0.022412911, -0.19962679, -0.22805311, 0.0238422, 0.16070676, 0.15156618, -0.13463353, 0.05289217, 0.009060869, -0.07177786, 0.16404007, 0.15377489, -0.025824616, -0.11485635, -0.027928764, 0.10127692, 0.019193927, 0.029949278, 0.22011077, 0.074233115, -0.019523676, 0.050629247, 0.005780459, 0.026407622, -0.019709554, 0.028268008, 0.06022138, 0.061699558, -0.053975537, 0.016965518, -0.1046723, -0.11074515, 0.07667465, -0.017246502, -0.07302861, -0.039822567, -0.23313256, -0.054531597, 0.079229794, 0.073945425, 0.035851065, 0.058311556, -0.1566134, -0.25291193, -0.38921046, -0.015275357, -0.094496325, 0.009575566, -0.1765215, -0.042051867, 0.066022515, -0.26298493, -0.22570725, -0.21038716, -0.32783455, -0.25868827, -0.22317354, -0.0106305815, 0.11174654, 0.094251655, -0.007297609, -0.035577144, 0.050351147, -0.15174976, 0.058458447, 0.028383702, 0.17471543, 0.20680998, 0.12561263, 0.036842123, -0.09194654, -0.057941895, -0.3149557, 0.021410417, -0.12176048, -0.07722251, -0.123295546, -0.02118617, -0.082701765, -0.1333397, -0.09352025, -0.12787172, -0.21639444, -0.08512552, -0.034301873, -0.11839519, -0.18699278, 0.11046698, -0.052337285, -0.15586525, 0.23326667, 0.102675244, -0.040904906, -0.0072550653, -0.17147435, -0.101367466, -0.14214858, -0.1630425, -0.20184532, -0.034526434, -0.07428714, -0.0025929948, -0.03175052, -0.13240607, -0.042738263, 0.029108897, -0.022532279, -0.07397175, 0.046503093, 0.0003255945, -0.011103369, -0.075477615, -0.104476035, -0.11720264, 0.022565946, -0.019465666, 0.05499127, -0.014427934, -0.11676415, -0.041434605, 0.08746611, 0.0044660973, 0.030010821, 1.436915e-05, -0.17200956, -0.015513563, -0.120675735, -0.096552886, -0.0631392, 0.09771788, 0.04965092, 0.08746173, 0.10285608, -0.0051495954, 0.030602086, -0.06759253, -0.18808308, -0.17273702, 0.08658766, -0.2530157, -0.05094963, 0.06949843, -0.089515075, -0.29185036, 0.11130413, 0.024186945, -0.014578897, 0.16049181, 0.22200574, 0.009995843, 0.17801283, 0.26819625, 0.14866379, 0.21386799, 0.27634692, 0.20524189, 0.026183212, -0.14935127, 0.056715593, -0.24089676, -0.35456532, -0.21253432, -0.010950489, -0.047182925, -0.073471904, 0.1023376, 0.012057774, 0.05772023, -0.21755484, -0.18129885, -0.03311312, -0.15631899, -0.10283038, -0.14484121, 0.031548675, -0.07697867, 0.0068871835, -0.07702819, -0.012961708, -0.07939344, 0.032090545, 0.048757885, 0.072367646, -0.19390978, -0.22631691, -0.21705684, -0.063852936, -0.05240736, -0.11341626, 0.008755769, -0.075969025, -0.094158396, 0.10748937, -0.0003951398, -0.046648808, 0.071282685, -0.014709866, 0.012282161, 0.013133231, 0.073321484, 0.050211344, -0.13959023, -0.08654644, -0.09931806, 0.009573578, 0.016089637, -0.018611722, 0.02056726, 0.029948598, -0.049595337, -0.110376455, -0.033324897, 0.05543535, -0.08605174, -0.23449084, -0.10442151, -0.21648616, -0.19630712, -0.027926987, 0.05582787, 0.06021626, 0.12720926, -0.023723967, -0.010672548, 0.033031408, 0.08989631, 0.07659274, 0.2725768, 0.02135536, 0.002768723, 0.055371545, 0.08604683, 0.065169096, -0.022785762, 0.099624954, 0.13359419, 0.038283024, -0.008529905, 0.006718492, -0.1422165, 0.064664096, 0.013110788, -0.044183385, 0.110712625, -0.07995833, -0.1305452, -0.176398, -0.13513424, 0.01787235, -0.23215713, -0.098881274, -0.016371278, -0.106386006, 0.052839894, 0.17091474, 0.01656351, -0.02308426, -0.07562997, -0.033684723, 0.064769976, -0.11629752, 0.1814204, 0.00086840603, 0.040719945, -0.092110366, -0.08965601, 0.23783831, 0.06707227, -0.11357644, -0.039800644, -0.07160462, -0.07139239, 0.22867449, 0.06664908, 0.046623588, 0.13268255, -0.06301151, -0.07149848, -0.03580232, 0.0619907, -0.035924397, 0.081395924, -0.16116406, -0.32198042, -0.1777206, -0.5697441, -0.17121394, -0.09368215, -0.40132192, -0.112045795, -0.09397975, 0.08591532, -0.124573514, -0.119974546, 0.023259649, -0.06709377, -0.1376021, -0.060159046, -0.13098447, -0.0036522986, -0.08001485, -0.18565342, 0.0889703, 0.05771041, -0.020072816, -0.018236317, -0.19416863, -0.2047148, -0.04996478, 0.00073010905, 0.017117579, 0.07926711, 0.07208482, 0.11690677, 0.029672325, -0.07358118, -0.07921772, -0.02022271, 0.09943433, 0.18478052, 0.1482078, 0.17626631, 0.035619512, 0.018503683, 0.08270775, 4.3502165e-05, -0.13044627, -0.05098054, 0.09179938, -0.10386019, 0.04821703, 0.11242733, 0.10902179, 0.040935602, 0.18656428, -0.0054746266, -0.038487405, 0.051665325, 0.084774666, -0.0021834462, -0.14756495, -0.17638071, -0.0939954, -0.059564345, -0.03116142, -0.1031884, 0.021915318, 0.013572725, -0.085374326, -0.009319549, -0.018097762, 0.038367603, -0.29011384, -0.10599153, 0.04167101, 0.12552187, 0.0119371405, -0.006745523, 0.098905526, 0.08323487, 0.19969888, 0.086044945, 0.08559253, -0.08756002, 0.07768223, 0.19088991, 0.09808102, -0.11565353, 0.11575174, 0.027886791, -0.06084372, 0.05458759, -0.17268828, -0.36800134, -0.13337937, -0.06375921, -0.11198732, -0.006879113, -0.10279114, 0.053094402, 0.10391014, -0.15223227, -0.22102456, -0.07409222, -0.21091148, 0.30501586, 0.01794718, -0.15170327, -0.19718163, -0.202025, 0.095855385, -0.040919177, 0.24861147, 0.1390676, -0.07584043, 0.052712698, -0.004452942, 0.044710457, 0.10777864, -0.0906589, 0.017113393, 0.20455207, 0.02700701, -0.046285946, -0.042574752, 0.08614265, 0.15770052, 0.19241813, 0.061487935, 0.009164852, -0.10603575, 0.020115476, 0.24249847, -0.091304824, -0.028908804, 0.14764826, -0.046820838, 0.1393986, -0.029176105, -0.1303882, -0.31884307, 0.16205432, 0.0359241, -0.070665844, -0.08260287, 0.15453698, -0.06452189, -0.17825751, -0.19365908, -0.031304564, -0.14447758, -0.21184005, 0.2020414, 0.114721864, -0.13857207, 0.0007927078, 0.0050432766, -0.13397841, -0.06602072, -0.18394892, -0.009807917, -0.06912728, -0.04608211, 0.05231395, -0.11787458, -0.22416249, -0.21807766, -0.23908323, -0.14187543, -0.20360057, -0.090924665, -0.17319947, -0.2283642, 0.057381473, -0.03745138, 0.017257389, -0.24371615, -0.17139767, -0.07250367, -0.23621294, -0.10569584, -0.009520508, -0.07039702, 0.09665504, 0.20167677, 0.09116447, -0.06282944, 0.16096085, 0.0925496, 0.077990495, 0.07494436, -0.14300978, -0.1386652, 0.1490778, -0.036891185, -0.126191, -0.063650206, 0.08294326, 0.05785495, -0.119689904, 0.033660434, 0.010060793, -0.17479274, 0.101095796, 0.029438272, 0.008724463, 0.14817606, -0.010554382, 0.19536658, -0.49420944, -0.26648203, 0.19270551, -0.33568236, -0.2550366, -0.00039584318, -0.49797228, -0.101776995, -0.012050297, -0.10535647, 0.035584394, -0.33845425, -0.08787929, -0.060472604, -0.06684475, 0.019132804, -0.044970047, -0.12540232, 0.115011565, -0.033861857, -0.17040065, 0.05367174, 0.045641366, -0.21938728, 0.020155897, 0.085681744, -0.041013353, -0.026345829, 0.016283618, 0.040188085, -0.08803525, -0.14826372, 0.029317308, -0.015703958, -0.020935511, 0.04638821, -0.0833291, -0.06287855, 0.02707572, -0.19692302, -0.10526455, -0.086231984, -0.124722145, -0.17944913, 0.060148433, 0.13756779, 0.16490868, 0.1274245, 0.1167391, 0.028526148, 0.16430375, 0.2578783, 0.115794174, 0.13748765, 0.017912995, 0.0136723565, -0.037692018, 0.2557509, -0.19138962, -0.27035475, 0.20691326, -0.021617522, -0.009572909, 0.09880089, 0.17605644, -0.06446819, 0.06052964, -0.13495722, -0.007352919, 0.12039887, -0.10906423, -0.022238763, 0.045459107, -0.1366128, -0.05361041, 0.0118880095, -0.22953533, -0.08994285, 0.029341152, -0.0020545926, 0.027962815, -0.022502623, 0.09128579, 0.02311105, 0.1553915, -0.13186155, -0.086954005, 0.099589236, -0.042323224, -0.16522437, -0.06580341, -0.14613898, 0.031976692, -0.061672956, -0.17637384, -0.04812138, -0.012220081, -0.023080016, 0.13983256, -0.08047022, 0.003953121, 0.12998143, -0.085718505, 0.055263646, 0.120958135, -0.17801207, 0.031980783, 0.20193876, 0.022726132, -0.12450738, 0.007251819, 0.033890348, -0.095975704, -0.19584979, 0.1846544, -0.01245468, -0.013626458, 0.13354836, 0.09712605, -0.027025301, -0.1505993, -0.047307882, 0.027661353, -0.054356903, 0.061795324, -0.05845177, 0.01131635, 0.004118869, 0.009879165, 0.056655016, 0.0124813495, -0.019402754, 0.05693257, 0.12622343, 0.04794712, 0.036122493, 0.15431106, 0.05468332, -0.02606974, 0.13784933, -0.059940428, 0.054004394, 0.05375049, 0.025656538, 0.115212314, -0.12879382, -0.02842362, 0.13492389, -0.043412935, -0.11303504, 0.12535262, 0.053009152, -0.022947628, 0.06449563, -0.040958863, 0.085617095, -0.0017336877, -0.0035677673, -0.05700277, -0.019838665, 0.084970325, 0.026842091, -0.059388503, -0.06720828, 0.042698022, 0.12996338, -0.103847176, -0.2215478, 0.093215965, -0.06188855, -0.09295484, -0.040124405, -0.018996065, 0.037604224, -0.056758244, 0.024766903, -0.050230216, 0.22158466, -0.07144816, 0.029943015, -0.14352794, -0.22544275, -0.03055473, 0.014194541, -0.32940862, -0.2136208, 0.26705217, -0.118379764, -0.0029807861, -0.10918071, -0.16009489, -0.09584534, -0.22993499, -0.24218927, -0.121393256, 0.007683622, -0.17919536, 0.017489124, 0.070425354, 0.010591608, 0.064572856, -0.13841783, -0.012447749, -0.008463734, 0.11841128, -0.042342942, 0.15397283, 0.040882666, 0.0011068333, 0.045015868, -0.0033238216, -0.15001804, -0.123976864, 0.1080366, 0.2378418, 0.0931015, 0.06904045, -0.13880694, -0.10994506, 0.08973382, -0.24674468, -0.41809905, -0.013230045, -0.08197154, -0.12823361, 0.01461532, -0.010882785, 0.23543055, -0.31804308, -0.16380501, 0.022070747, -0.30832902, 0.0060270187, 0.098390184, 0.0762955, -0.11243578, 0.10765441, -0.041767314, -0.16055377, 0.08752643, 0.097917385, 0.0026468572, 0.08037363, -0.28753042, -0.3098914, 0.053456664, 0.0022523478, -0.044592008, -0.108380154, -0.007902386, -0.042202193, 0.035759605, 0.053222526, -0.009850004, 0.089523114, 0.006786745, -0.1312203, -0.15243915, 0.14180726, -0.09592632, -0.029515108, 0.029070549, -0.15296468, -0.13147445, 0.050010636, -0.13351975, 0.046566933, 0.04020788, -0.1940708, -0.120152906, -0.009208967, -0.16747427, 0.096125826, 0.058416933, -0.12540181, -0.006056024, -0.07593342, -0.06274602, 0.09522395, 0.0024504322, 0.036150414, -0.0075211427, 0.08507802, 0.08668727, 0.020727742, -0.101004906, -0.0752354, 0.051286664, 0.006359094, -0.37614688, 0.17458902, -0.060029857, -0.27608353, -0.026992636, 0.10547238, -0.11293202, -0.029717227, -0.04740047, -0.18707548, 0.25157943, 0.044175528, -0.089119494, -0.22351186, 0.021405393, 0.14759208, -0.107331164, 0.15926816, 0.0323718, 0.07900525, 0.034938883, -0.03983324, 0.023458606, 0.12715025, 0.06824, 0.12200442, 0.008503691, -0.14939162, 0.008752816, 0.11915688, -0.12750722, -0.14478329, 0.12172354, -0.11981864, -0.0998679, -0.0526316, -0.11665934, -0.031529136, 0.10328093, -0.22212307, -0.25640658, 0.1948962, -0.07706084, -0.17520244, 0.043306302, 0.01130839, 0.07629884, -0.07956505, 0.067307815, -0.009696915, -0.20908603, 0.009775159, 0.0035302704, -0.008566854, -0.029334359, 0.042186692, -0.059677787, -0.1230557, -0.19510579, 0.075718984, -0.12567537, -0.078579314, 0.033417728, 0.00408008, 0.13091925, 0.079559244, 0.19624835, 0.14679188, 0.03361266, 0.0054282844, -0.032832302, 0.008606436, -0.0028729304, -0.037562467, 0.0105339, 0.0045296163, 0.10467564, 0.012654638, 0.17464964, 0.1984791, -0.10221849, -0.06923045, -0.026153563, -0.08663827, -0.029624868, -0.07827146, 0.098676756, 0.071699984, 0.104663946, 0.15893023, 0.14412302, -0.18263738, 0.014346, -0.09982727, -0.1573527, -0.004611022, 0.060553424, 0.0328355, 0.09155379, -0.054265387, -0.027313001, 0.1043623, 0.046922967, -0.045078836, 0.19683892, 0.04986292, -0.026321564, 0.04151854, -0.033121698, -0.039460305, -0.0031976234, -0.03080832, -0.051180057, 0.04577087, 0.12366159, 0.08565693, -0.14606667, -0.011435817, -0.1133277, -0.10735968, 0.0388215, 0.08001384, -0.017920893, 0.057472404, 0.0030311102, -0.047226034, -0.09798894, -0.17414038, -0.23498555, -0.15661517, -0.13893193, -0.11556349, -0.24711235, -0.015768224, 0.09048118, 0.012184002, -0.11303367, -0.16143009, -0.080160014, -0.0732494, -0.06778026, -0.09150322, -0.052635517, 0.050242655, -0.01684229, -0.28919125, 0.038924403, 0.10923544, -0.09772667, -0.028949542, 0.18747662, 0.017692091, 0.15986456, 0.101322345, 0.015436729, -0.1054594, 0.027114468, 0.10643642, -0.101123676, 0.06735284, 0.01778378, -0.027070446, -0.017079689, -0.2800502, -0.021766797, -0.097757675, 0.10650902, 0.060560428, 0.045142718, 0.15289567, -0.07359109, 0.09854323, -0.1820661, -0.14987864, -0.05214239, -0.27119535, -0.2370531, -0.08485003, -0.1875939, -0.04718165, 0.033604883, -0.12839471, -0.14622216, -0.13667229, -0.119070925, -0.04122704, 0.041270636, -0.060339283, 0.095434226, 0.010031689, 0.060240787, 0.011005287, -0.05476732, 0.109722465, -0.0415943, -0.023713095, 0.072147086, -0.13339563, -0.10946829, -0.12373395, 0.0655979, 0.15710051, 0.048877884, 0.06663737, 0.026004717, 0.11656181, 0.15278849, 0.24848731, -0.07939727, -0.007793287, -0.07937059, -0.21091852, -0.026161328, -0.1154635, -0.21556886, -0.022853283, -0.052820172, -0.08453626, -0.11691117, -0.21831252, -0.14234713, 0.014311487, -0.066848435, 0.022427907, -0.025366982, -0.004510711, -0.11862819, -0.05235524, -0.15119559, -0.3354539, -0.043606, 0.08322259, -0.3027827, 0.0062225284, 0.06761985, 0.21340233, -0.048747458, 0.07703839, 0.16763063, -0.07050798, 0.14638838, -0.12764019, 0.06777919, 0.06645305, -0.21737726, 0.06274313, -0.013317429, -0.22021696, 0.003193469, 0.011539757, -9.8928635e-05, -0.05011461, 0.04549198, -0.031030439, -0.17951584, -0.07924674, -0.14695635, -0.18157642, -0.089560226, -0.075877495, -0.008044381, -0.010981397, 0.08674932, -0.056193773, 0.011130834, 0.17909086, -0.020646563, 0.084474824, 0.06964871, 0.043377005, 0.05784106, -0.06658023, -0.014772892, -0.19037534, -0.10072549, 0.13985802, 0.0857639, -0.04703947, 0.05856548, 0.030558266, -0.033516258, 0.0032835514, 0.20912102, 0.112764165, 0.028682832, 0.17433748, 0.15006654, 0.19060741, 0.1269389, 0.07911125, 0.11467014, 0.012720756, 0.044935256, 0.094899625, 0.056472152, 0.061448846, -0.05218871, -0.20155147, -0.16934572, 0.08310876, -0.09465317, -0.18008508, -0.21706297, -0.15397318, -0.04144383, 0.084273756, -0.12719941, -0.31502938, -0.057326585, -0.43133187, -0.5134239, -0.09893548, -0.28523934, -0.14001687, -0.016145853, 0.0625386, -0.11515415, 0.08969689, 0.2364329, 0.05525249, 0.03641908, 0.16760501, 0.006749785, -0.051823497, -0.03379613, -0.13391925, -0.049911004, -0.0669615, -0.0637755, 0.100977056, -0.049906265, 0.0713964, -0.05206018, 0.08306615, -0.0504039, -0.11415296, 0.02325778, -0.078851946, -0.06703837, 0.07752058, -0.012216204, 0.1139148, 0.03064113, -0.15130518, 0.013408005, -0.016395306, -0.059041254, -0.049648464, -0.08596964, 0.03454468, -0.008427971, 0.04663428, -0.010636263, 0.0836709, 0.03212532, 0.011788745, 0.11130863, 0.052860495, -0.0698779, 0.09732191, 0.14989194, -0.09776265, -0.12072835, -0.070634745, 0.031753786, -0.13287394, -0.017822068, 0.08216997, 0.09194569, -0.08718194, -0.18034194, 0.019604389, -0.0075374627, -0.038791694, 0.057338223, -0.08818218, -0.05851879, -0.07795328, 0.016174544, 0.073161, 0.062457144, 0.012081126, 0.06411059, -0.078744344, -0.039493617, -0.05637081, 0.09362912, 0.05186751, -0.042870134, -0.057246238, -0.24516098, -0.09017726, -0.07558732, -0.25689545, -0.045337096, 0.08050713, 0.18245016, 0.11880642, -0.063119814, -0.06912259, -0.1002112, -0.08127881, -0.011667147, -0.03437887, 0.04287189, 0.16043992, -0.101447895, -0.18813555, -0.17040044, -0.0074395263, -0.30290112, -0.18971807, -0.012000138, 0.05000369, 0.10626024, -0.027794186, -0.16243288, -0.038074296, 0.048259728, -0.102065384, -0.090781204, 0.10484251, -0.044012517, -0.16868383, 0.09273027, -0.061043814, -0.04172941, 0.1272855, -0.010064485, -0.015144534, 0.08761909, -0.07776578, 0.0016269962, 0.15615478, -0.10957032, 0.024805736, 0.25630558, 0.05956344, 0.023909736, 0.053958796, -0.0008812025, -0.042404294, 0.03231178, 0.03041443, 0.10724671, 0.18819597, 0.07006536, -0.15423554, 0.109313376, -0.043990098, -0.07351795, -0.041592333, -0.09300896, -0.14171094, -0.12325008, -0.14197062, -0.051199984, -0.10306713, 0.14239158, 0.04651779, -0.0034901572, 0.13688788, 0.16301683, 0.13712925, 0.032282732, -0.08346066, 0.061243832, -0.08652254, 0.072589085, 0.011081121, -0.14278066, -0.09849279, -0.06369214, -0.08342833, -0.254973, -0.057745405, 0.050083682, 0.036426626, 0.023879029, 0.06603661, 0.0018931658, -0.12791088, 0.07694335, 0.009820912, 0.04419863, 0.015966931, 0.1307984, -0.24900274, 0.085518435, -0.00017956679, -0.01509753, -0.093601264, 0.058480762, -0.015166607, -0.013086294, -0.0053853425, -0.036851913, -0.043267358, -0.06559493, 0.0075985757, 0.004276974, -0.08953726, -0.10704472, 0.12416931, 0.23314653, -0.27436763, 0.08954874, -0.112915434, -0.033402376, -0.08218162, -0.054387055, 0.0058724885, -0.10711526, -0.17233305, 0.17110518, -0.019321274, -0.16285731, -0.039619584, 0.0830335, -0.017226148, 0.05280962, 0.046847016, 0.08009002, 0.09356845, 0.1897281, 0.23696552, 0.12885863, 0.03827781, 0.06851703, 0.07073593, -0.032778688, -0.018194586, 0.017122554, 0.117362745, -0.111848384, 0.05937455, 0.047440536, -0.14229913, 0.024767846, 0.017090205, 0.22989425, 0.12856346, 0.11349763, 0.10666619, 0.19254474, -0.016773425, -0.07261884, 0.009823169, -0.15612319, -0.13890076, 0.103413336, -0.15304874, -0.09488101, -0.007581155, -0.02125239, -0.043632444, 0.027199954, 0.12187727, 0.22177169, -0.2005467, 0.038604036, -0.09520654, -0.26665017, -0.07240748, -0.09730592, -0.112055525, 0.03212468, -0.061812617, -0.054013688, 0.10901064, -0.020651376, -0.10041487, 0.13682233, -0.0057229805, -0.09445418, 0.024826547, -0.09746578, -0.1405145, 0.01170543, -0.10916622, -0.19777916, 0.027658941, -0.050697025, -0.14582045, 0.008121174, -0.017837072, 0.13325723, -0.21793419, -0.10071508, 0.06430186, 0.22449844, 0.06260115, 0.15886164, -0.006879052, -0.013533195, 0.18372539, -0.12723228, -0.0700089, 0.122554615, -0.010977087, 0.040812798, 0.20829837, -0.089813896, 0.034091152, -0.0050783, 0.04590086, 0.11587977, 0.070027985, 0.15451092, 0.09771886, -0.037471157, 0.19081031, 0.08184108, -0.13584858, 0.112326466, -0.02612058, -0.30116898, -0.09430661, -0.018376075, -0.0675992, -0.045043, -0.2370563, -0.046353698, 0.0062664445, -0.080115825, 0.11444, 0.034406785, -0.09005917, 0.0046504117, -0.021770312, 0.05498455, -0.034538373, -0.013765465, 0.018354753, -0.045083318, -0.06946275, -0.011893514, -0.07498049, -0.015937712, -0.036741305, -0.049222477, -0.031722322, -0.057566307, -0.011699534, -0.04801266, -0.019182941, -0.011346715, -0.057966262, 0.023444373, -0.023061223, -0.038030196, -0.023632906, -0.04507597, -0.016253019, -0.07977031, -0.06251829, -0.054407723, 0.04125939, 0.032766882, 0.0008653757, -0.058089588, -0.058646534, -0.0595775, 0.021655098, -0.0532437, 0.03407391, 0.019037032, 0.0047206283, -0.0416967, -0.018823482, -0.05771813, -0.046791576, -0.007217599, -0.06761533, -0.04841481, 0.038503475, -0.019690001, -0.045893777, -0.06145688, -0.039780848, -0.025856247, 0.013231656, 0.0068525122, 0.043494035, 0.04652502, 0.020501517, 0.014996064, -0.028109739, -0.088540055, -0.054173775, -0.028271873, 0.02571554, -0.079446994, -0.041390274, 0.044892244, -0.0018670742, -0.041615017, -0.019104743, -0.053622626, -0.012722209, 0.0031804722, 0.07502107, -0.0020770608, 0.033553243, -0.035023984, -0.040729336, 0.014378795, -0.05810205, -0.04901331, 0.008618017, 0.015385093, -0.06886676, -0.038949713, -0.00422725, -0.078759566, 0.014898273, 0.0368287, -0.06486395, 0.02211892, -0.040205684, -0.08764265, 0.024039676, 0.03421748, -0.04011689, 0.01737007, 0.042283885, 0.022556547, -0.04783957, -0.015008754, 0.0026290608, -0.013419532, -0.012843002, 0.01454479, -0.061834253, -0.06045375, -0.07538506, -0.07104471, -0.014222972, -0.013697048, -0.06024159, 0.03817206, -0.03321043, 0.013447875, -0.061496872, 0.02590818, 0.02029016, 0.009394405, 0.032596786, -0.02108525, -0.0571819, -0.020140588, -0.02591688, -0.022108527, -0.0755068, -0.008634532, 0.009083356, -0.06669372, -0.061274886, 0.006581889, -0.09089929, -0.04144965, -0.010587704, -0.06973225, -0.039958928, -0.028988635, -0.030924395, -0.031556983, -0.054730322, -0.032943152, -0.041419037, -0.0012715901, -0.055807065, 0.0013346726, -0.029749718, -0.046138212, 0.03909499, -0.055003878, -0.011476297, -0.07839865, -0.011267778, -0.083200395, 0.025295647, 0.031476807, -0.05627683, -0.06718115, -0.047482576, -0.0058280835, -0.007974238, 0.014492252, -0.04344424, -0.022112168, -0.043847967, -0.016441477, -0.022666778, -0.05234431, -0.07467847, -0.045940038, -0.039559446, -0.07292361, 0.014522126, -0.042616136, 0.0018336708, -0.021970417, 0.025445553, -0.02345484, 0.0071400087, 0.041502506, -0.06502982, -0.03952212, -0.05423194, -0.022426441, -0.03232028, -0.02354148, -0.06857164, -0.029900702, -0.0039238464, -0.022061009, -0.030502265, -0.045424953, -0.04168251, 0.038459927, -0.04649153, 0.008012209, 0.022851164, -0.048825484, 0.0076799914, -0.0778624, -0.010747817, -0.0023078762, -0.00011641451, 0.02554501, -0.007154708, -0.03187357, -0.021307474, -0.024150835, -0.08575204, -0.055162027, -0.05653938, -0.0046859505, -0.07033248, -0.012063596, -0.070349924, -0.06398581, 0.030971078, 0.037444253, 0.023320885, 0.031477705, -0.011796598, 0.03567713, -0.053904034, -0.032078974, 0.011552987, 0.014900702, 0.025554076, -0.0577667, -0.056935064, -0.047394197, -0.041829817, -0.07826052, 0.015747748, 0.031862825, -0.038722288, 0.0012893458, -0.0014359887, -0.06272273, -0.059865076, -0.051614374, 0.02308866, 0.0012057115, -0.07246861, -0.05033057, -0.00022100142, -0.004899561, -0.071225844, 0.021037469, -0.05390707, 0.027173916, -0.00077092263, -0.042423543, 0.01798885, -0.039138034, -0.06117006, -0.059482187, 0.02564559, 0.005278707, -0.06658208, 0.028359754, -0.001355136, -0.0021644065, 0.032555465, -0.031798285, -0.06463871, 0.009982753, -0.049141016, -0.0664345, 0.05207203, 0.005385952, 0.031151516, -0.06820546, 0.05778971, -0.0005536563, 0.038461458, -0.015366959, -0.020576004, -0.041771375, -0.02032775, -0.0692856, -0.036420267, -0.047403593, 0.001396358, -0.0663727, -0.013140662, -0.049389012, -0.0050671212, -0.008050948, -0.03947497, -0.005827711, 0.0015536742, 0.040380593, -0.00843431, -0.11896216, -0.11192904, 0.16188762, 0.0038945982, -0.003666886, -0.0240192, 0.043558266, 0.18368143, 0.073023245, 0.060725223, 0.20738098, 0.23753135, -0.17059423, -0.082421124, -0.057731472, 0.12013928, -0.019104348, 0.042926777, 0.10822054, 0.15971804, -0.06850772, -0.007074806, 0.062309794, 0.06862647, -0.12485439, -0.10532057, -0.09492724, -0.10687734, -0.23001164, -0.09247777, 0.005654112, -0.058195986, -0.025886623, -0.024715075, 0.027633192, -0.044581395, -0.04752331, -0.059641756, -0.117471755, 0.08861491, 0.10962046, 0.04129618, 0.25831896, 0.30568093, -0.027417537, -0.021169446, 0.14210376, 0.21092384, -0.21290813, -0.27399293, -0.023179896, 0.028350696, 0.0006652091, -0.084539585, 0.13872682, 0.22962849, 0.01236448, 0.017029226, -0.019489232, 0.041925933, -0.21734408, -0.10172411, 0.031232364, 0.075454816, -0.009082662, -0.18475567, 0.056387536, 0.02157333, -0.19720648, 0.14387274, -0.13589835, -0.0646584, 0.16316818, 0.14785226, -0.010930361, -0.09077118, 0.053966284, 0.13999955, 0.009911682, -0.1618467, -0.04542732, -0.1796267, -0.22171268, -0.10364252, -0.089456394, -0.06859907, -0.019923888, -0.036347426, -0.031669114, -0.01215419, -0.0960077, 0.060021866, 0.03209613, -0.13509853, 0.008192689, 0.07041514, -0.058133937, -0.11727798, -0.06415263, -0.004958682, -0.10196989, -0.26808077, 0.0120765325, -0.15647371, 0.011699552, 0.14494355, -0.008978811, -0.01745345, 0.03976133, 0.11326857, 0.0034479725, -0.012428415, 0.059887853, 0.04841385, -0.1955558, 0.045830242, 0.0011931091, -0.07753693, -0.24603833, 0.09371487, -0.1240575, -0.122058935, -0.09466565, -0.121770054, -0.1580944, 0.01663858, -0.03784881, -0.17427002, -0.073845245, 0.08215555, 0.11383691, -0.14317308, -0.2005046, -0.10676617, -0.035231907, -0.09060739, 0.056243274, 0.070569456, 0.060254868, 0.010326603, -0.21623082, 0.12370591, 0.04309998, -0.056639038, 0.013730121, 0.06597224, -0.10309354, 0.11030153, 0.15200365, -0.04439663, -0.13425922, -0.044020712, 0.16549233, 0.1508257, 0.13394195, -0.17043678, 0.09918005, 0.205801, 0.2513971, -0.19505176, -0.09356223, -0.04764322, -0.12271549, -0.07197553, 0.08853045, -0.032067172, -0.06428238, -0.026713839, -0.05215471, 0.32971185, 0.08125931, 0.034838825, -0.29045781, 0.016752707, 0.058420654, -0.14058802, -0.114937834, -0.048470415, -0.25250983, 0.15863754, 0.11000838, -0.1179196, 0.11045335, -0.026104076, -0.044381496, 0.09026797, 0.07424521, -0.09789595, -0.09298905, -0.058694433, -0.42715898, -0.28086132, 0.0042668087, 0.023669958, 0.08862905, -0.04463953, -0.020752156, -0.019803952, -0.06667522, 0.040843204, 0.06977776, -0.11871513, 0.03612892, 0.109784156, -0.0013799139, -0.008268487, 0.10581806, 0.00064258656, 0.049853027, 0.08382538, -0.11828934, -0.09124162, -0.089725755, -0.020694753, -0.06689801, -0.13081536, 0.0045297863, 0.18507543, 0.082229204, -0.13975121, -0.108882405, 0.1071518, -0.030714352, -0.06495073, 0.00795148, -0.12467818, -0.069145195, -0.06807648, 0.16150092, 0.21879163, 0.07908751, -0.18063992, -0.0893804, 0.022108248, -0.13931903, -0.06975214, 0.1520943, 0.0012203888, -0.074134864, -0.12435609, 0.18013053, -0.070007816, -0.041993212, 0.12939003, -0.03023519, -0.17735605, 0.018037504, 0.025517605, 0.08706341, 0.04498107, 0.0750272, 0.086581804, 0.0891159, 0.19430456, 0.14145635, -0.034170106, -0.17840439, -0.12794119, -0.011639791, -0.1347335, -0.08470722, 0.013378449, 0.11204851, 0.18079033, -0.04060374, -0.1378785, 0.11427795, -0.059933692, -0.08095155, -0.108825825, 0.05143003, 0.05010527, -0.09383988, 0.012864358, 0.14904585, 0.031616155, 0.08121283, -0.14707738, -0.13970399, -0.012459695, -0.13686863, -0.3850561, 0.00988955, -0.096618064, -0.29986984, 0.044421602, -0.028187998, 0.026546566, -0.10693149, -0.063405626, 0.020422578, -0.1431845, -0.19592983, -0.12630256, -0.026254347, -0.109240085, -0.05877329, 0.13253938, 0.08099861, 0.10354998, -0.19669662, -0.14128429, -0.040633373, 0.11518116, 0.12769341, 0.20857804, -0.0037806234, -0.12077558, -0.07964441, -0.12106401, -0.09597281, -0.19539607, 0.049760837, 0.064114444, 0.09175139, -0.10813234, -0.053817086, 0.044046983, -0.06897853, -0.21224013, 0.040274374, 0.017932527, -0.16629541, -0.13238004, -0.040816203, 0.08574198, -0.08078173, 0.15582022, 0.18777056, 0.080877885, 0.10108824, -0.11357846, -0.14508314, 0.051875975, 0.06710114, 0.11830733, 0.0828553, 0.031817876, 0.21153666, -0.13191548, -0.2582532, -0.12752141, -0.026055925, -0.016001245, -0.011258577, -0.0209273, -0.116412334, -0.07544432, 0.017498903, -0.02772215, 0.042834744, 0.0514269, -0.18165651, -0.1660484, -0.25192368, -0.030656232, -0.015178619, 0.02725947, 0.055500995, 0.3201676, -0.47298008, -0.43214345, -0.4103806, -0.014919497, 0.017324464, -0.10587241, 0.11039028, 0.047679026, -0.038342677, -0.14725237, -0.028014319, -0.020899536, -0.094768584, -0.011112361, 0.021530358, 0.042615116, -0.093253344, -0.0788661, -0.06492536, -0.0064523383, 0.08837169, 0.011650194, 0.11532291, 0.10255999, 0.14329933, 0.2693964, 0.09874109, -0.07945401, -0.40767136, -0.2177349, -0.22859755, -0.2942534, 0.017561276, 0.09604958, -0.06929607, 0.037592318, -0.0044778977, -0.02969535, -0.03893475, 0.009658412, 0.063556924, 0.16317192, -0.016562365, 0.06883725, -0.058754753, 0.063545294, 0.004578274, 0.15018034, -0.005426571, -0.052727435, -0.021746939, 0.06856464, -0.082358725, 0.028288363, -0.11598327, -0.08048267, -0.016673258, -0.031181104, 0.011812022, -0.015354282, -0.047476448, -0.016284676, 0.14074254, -0.020213546, 0.037760217, 0.027090658, -0.109172925, -0.20592305, -0.062391058, 0.030699136, -0.020363975, 0.0426938, 0.0077957073, 0.017693995, -0.044751614, -0.1401393, -0.084492534, -0.024116322, 0.02616009, -0.03126984, 0.083022386, -0.08346922, -0.14584656, -0.04295681, -0.09309681, 0.068944216, 0.06464893, -0.021148134, 0.17128019, 0.19639418, -0.0013257723, -0.087703146, -0.07134666, -0.20183428, -0.15566958, -0.24348915, 0.088956974, -0.033691563, -0.16345082, 0.10749264, 0.07436939, 0.2941794, 0.25052178, 0.1280335, 0.21140134, 0.03660788, -0.0833506, -0.12566455, -0.04695089, -0.018632045, 0.10095579, -0.0038621726, -0.14136699, 0.032526866, 0.04699282, 0.115034886, -0.08855005, -0.039477836, -0.17136097, 0.07973527, 0.17365038, 0.06409297, 0.20892796, 0.07907608, 0.021261184, -0.038074035, -0.2832871, -0.07656661, -0.0658161, -0.17677139, 0.04486496, -0.10927048, 0.10188895, 0.0146079585, -0.07478091, -0.13620657, -0.05342089, 0.011678849, -0.029106272, 0.020662228, -0.027910268, -0.15583634, -0.044897556, 0.065914154, -0.14790787, -0.052018985, -0.113822006, 0.020973904, 0.14335081, -0.0021280213, 0.010314581, -0.00906118, 0.041561786, 0.17408127, 0.09092304, 0.20099252, 0.061919767, -0.034088627, 0.019390633, -0.035948027, -0.1473941, -0.3130426, -0.03578359, 0.064503595, 0.103058554, 0.080604255, 0.08078871, 0.108974025, 0.16362672, 0.11463797, 0.31430757, -0.009147253, -0.14957672, -0.08347889, 0.12432189, -0.14603688, 0.023838013, -0.12094477, -0.11358021, -0.049446844, -0.119541965, 0.046798453, -0.004375128, 0.12652552, 0.15627383, -0.08003021, -0.023774276, -0.10249371, -0.19073337, 0.087455064, 0.043704815, 0.14969306, -0.016650036, 0.044855203, 0.032461677, 0.0021383644, 0.066755265, 0.072584964, 0.036547452, 0.09986767, 0.03366488, -0.1641633, -0.14046864, -0.042441882, 0.031556834, 0.1008295, 0.035870567, 0.024144376, -0.09799413, -0.07483106, -0.07033383, -0.0069482066, 0.07206579, 0.0030791212, -0.084697574, -0.21447477, -0.12978026, -0.26765212, -0.055987228, -0.022256952, 0.057720724, 0.19585858, -0.12104576, -0.19695535, 0.16885509, 0.008855024, -0.07007355, -0.026852341, -0.12990236, -0.1414086, 0.014078342, 0.22064912, -0.07689307, -0.030348964, -0.18713129, -0.22782911, -0.3231907, -0.07876591, -0.027512103, -0.12018893, -0.011857407, 0.0032037657, 0.07848443, -0.20506044, -0.1700626, 0.052018892, 0.06571466, 0.10309302, 0.074835815, 0.037930485, 0.15477125, -0.04860511, -0.14457141, -0.06709464, -0.06800655, -0.0064749713, -0.03706523, 0.00796649, -0.18480475, -0.06036551, -0.043218635, -0.07585894, -0.068329886, 0.049998127, -0.042871054, 0.033332698, 0.062268443, 0.09803628, 0.16121289, 0.0484971, 0.14621559, -0.2836538, -0.1635386, -0.04100594, 0.0024115215, 0.026967937, 0.19790183, 0.14759675, 0.059225444, -0.111210465, 0.022749111, -0.16178907, -0.023504859, -0.03554212, -0.36177754, -0.06883246, -0.011021034, 0.052332167, -0.16899958, 0.06782724, 0.10462536, 0.13778673, 0.20144089, 0.12298364, -0.20757793, -0.032560233, 0.1991465, -0.17137338, -0.0020729832, 0.043342967, 0.12395324, 0.10247625, 0.066970184, 0.0711241, 0.045286838, 0.005338871, -0.16773279, -0.08864562, -0.113255344, 0.0062476667, -0.08236274, -0.054439846, -0.075188175, 0.1910889, 0.07479479, 0.043931, 0.12593599, -0.09223993, 0.10389625, 0.072404265, 0.08941816, 0.06346672, -0.057645436, 0.19084665, -0.23496543, -0.20211138, -0.11594147, -0.081911385, -0.03980745, -0.023982624, 0.066120945, 0.149458, 0.088984795, 0.1246887, 0.11793026, -0.13021502, 0.034626946, -0.26972845, 0.014594391, -0.04263996, 0.04953544, 0.026249858, -0.12473915, -0.0354672, 0.06507162, -0.028916296, -0.11874431, 0.025561396, 0.16364628, -0.05662892, -0.16243497, 0.28211936, -0.37253276, -0.25649983, -0.17189611, -0.03156811, 0.136752, 0.032480963, 0.10818744, -0.003381721, 0.19462945, -0.119209684, -0.21051367, -0.15508674, -0.08191275, 0.047385477, 0.29068935, 0.0064704455, -0.059976522, -0.14597006, 0.16633137, 0.15236543, -0.09089458, 0.07379795, 0.00012328962, -0.026947422, -0.12337579, -0.37208003, -0.16901714, -0.0746181, -0.08303887, -0.04344399, 0.03886682, 0.052275803, -0.096162476, -0.062094364, 0.062385224, 0.1815315, 0.06864286, 0.099817805, 0.16751887, 0.087536834, 0.1545183, 0.19492638, 0.19934312, 0.1956832, 0.2504548, 0.16854289, -0.07688781, 0.11005268, -0.038323253, 0.12895803, 0.01773814, 0.084090576, -0.05735278, 0.010320274, 0.07139764, -0.016411196, 0.1302387, -0.009678601, -0.10096794, 0.074783556, 0.23954716, 0.052022386, 0.016377125, 0.02193948, 0.08529139, 0.1226617, -0.10506149, 0.11858333, -0.08368812, 0.06802251, 0.17325622, 0.013497114, 0.0061030746, -0.27627486, 0.14818871, -0.022294348, 0.16430166, 0.05639427, -0.28409928, -0.16003756, -0.1833421, -0.47680035, -0.3416692, -0.016919095, -0.15499277, -0.12976795, 0.23901775, -0.099484384, -0.16798007, 0.16307525, 0.01783202, -0.21213263, 0.14577301, -0.066260666, -0.12624876, 0.024680933, 0.02748933, 0.036135886, -0.08208355, 0.015418101, -0.16111442, -0.011148955, -0.11037652, 0.012533428, -0.058996875, -0.18565945, -0.032165654, -0.3712363, -0.15277946, -0.033786923, 0.012420468, -0.029987788, 0.0322192, 0.15777999, 0.031009534, 0.03875777, 0.08207187, -0.04425346, -0.16300946, 0.06653769, -0.092182435, 0.00024479703, 0.053179745, -0.00021346717, -0.15326147, -0.07757257, -0.14297701, -0.18590581, 0.08583568, 0.052639034, -0.030818833, 0.12972423, 0.09716558, -0.1630732, -0.15956183, -0.15178305, -0.27976605, -0.043793876, -0.088923186, -0.047315285, -0.06562734, 0.10539045, -0.0015989363, 0.047793217, 0.10881582, -0.04693667, 0.10749064, 0.040976327, -0.025462719, 0.048458483, 0.118463784, 0.06500601, -0.012463153, 0.16044392, 0.036087897, -0.092162825, -0.16317196, -0.05290226, -0.023681942, 0.068238035, 0.077230334, -0.11848328, -0.0521365, -0.17662671, -0.19786958, -0.12724268, -0.23444042, -0.08072773, -0.005990462, 0.078274414, 0.05642842, 0.031181702, -0.031737633, 0.07887192, 0.05594049, 0.08012999, -0.07059734, -0.03197439, -0.12890512, -0.037608296, -0.017096065, -0.17013092, -0.1663308, -0.09344987, 0.010527191, -0.014336683, -0.05729721, 0.1360521, -0.03489413, 0.0023251174, -0.067966856, 0.12086505, -0.061631475, -0.016838815, 0.031069893, -0.21752447, -0.13849805, 0.10820201, 0.019803671, -0.14829545, 0.04994772, 0.08871539, 0.039201766, 0.05159518, -0.04413705, 0.08929829, 0.0662466, 0.13822633, -0.14144777, -0.065129794, 0.03156486, -0.18026364, 0.061523438, 0.078825824, 0.087932095, -0.18774362, 